{"learner":{"attributes":{"scikit_learn":"{\"_estimator_type\": \"classifier\"}"},"feature_names":[],"feature_types":[],"gradient_booster":{"model":{"cats":{"enc":[],"feature_segments":[],"sorted_idx":[]},"gbtree_model_param":{"num_parallel_tree":"1","num_trees":"100"},"iteration_indptr":[0,1,2,3,4,5,6,7,8,9,10,11,12,13,14,15,16,17,18,19,20,21,22,23,24,25,26,27,28,29,30,31,32,33,34,35,36,37,38,39,40,41,42,43,44,45,46,47,48,49,50,51,52,53,54,55,56,57,58,59,60,61,62,63,64,65,66,67,68,69,70,71,72,73,74,75,76,77,78,79,80,81,82,83,84,85,86,87,88,89,90,91,92,93,94,95,96,97,98,99,100],"tree_info":[0,0,0,0,0,0,0,0,0,0,0,0,0,0,0,0,0,0,0,0,0,0,0,0,0,0,0,0,0,0,0,0,0,0,0,0,0,0,0,0,0,0,0,0,0,0,0,0,0,0,0,0,0,0,0,0,0,0,0,0,0,0,0,0,0,0,0,0,0,0,0,0,0,0,0,0,0,0,0,0,0,0,0,0,0,0,0,0,0,0,0,0,0,0,0,0,0,0,0,0],"trees":[{"base_weights":[-5.7669873E-3,3.508732E-1,-1.6771208E0,7.0287955E-1,-1.0037928E0,-1.8485461E0,-1.1706617E0,7.622668E-2,1.0813547E0,-1.6011751E0,-4.28815E-1,-9.39225E-2,-1.379213E0,-9.056037E-1,-1.691358E0,3.4500565E-2,-2.684491E-2,7.237212E-2,3.1457227E-2,-8.5390694E-2,-5.4994848E-2,-4.575903E-2,-9.267049E-3,-2.667427E-2,-8.085893E-2,-6.342564E-2,-2.7154027E-2,-3.8633578E-2,-9.4805196E-2],"categories":[],"categories_nodes":[],"categories_segments":[],"categories_sizes":[],"default_left":[0,0,0,0,0,0,0,0,0,0,0,0,0,0,0,0,0,0,0,0,0,0,0,0,0,0,0,0,0],"id":0,"left_children":[1,3,5,7,9,11,13,15,17,19,21,-1,23,25,27,-1,-1,-1,-1,-1,-1,-1,-1,-1,-1,-1,-1,-1,-1],"loss_changes":[9.780103E2,6.4551807E2,2.2887085E1,2.5462128E2,9.525244E1,4.1052246E-1,8.915176E0,1.529533E2,1.0991821E2,5.4248047E0,1.684595E1,0E0,2.4724293E0,6.193512E0,3.120987E0,0E0,0E0,0E0,0E0,0E0,0E0,0E0,0E0,0E0,0E0,0E0,0E0,0E0,0E0],"parents":[2147483647,0,0,1,1,2,2,3,3,4,4,5,5,6,6,7,7,8,8,9,9,10,10,12,12,13,13,14,14],"right_children":[2,4,6,8,10,12,14,16,18,20,22,-1,24,26,28,-1,-1,-1,-1,-1,-1,-1,-1,-1,-1,-1,-1,-1,-1],"split_conditions":[1E0,1E0,9.335E1,1E0,1E0,1E0,7.2E1,6E0,1.6E1,1E0,8.195E1,-9.39225E-2,1E0,6.6E1,1E0,3.4500565E-2,-2.684491E-2,7.237212E-2,3.1457227E-2,-8.5390694E-2,-5.4994848E-2,-4.575903E-2,-9.267049E-3,-2.667427E-2,-8.085893E-2,-6.342564E-2,-2.7154027E-2,-3.8633578E-2,-9.4805196E-2],"split_indices":[25,24,2,10,23,28,1,1,1,28,2,0,7,1,13,0,0,0,0,0,0,0,0,0,0,0,0,0,0],"split_type":[0,0,0,0,0,0,0,0,0,0,0,0,0,0,0,0,0,0,0,0,0,0,0,0,0,0,0,0,0],"sum_hessian":[1.6387717E3,1.3512307E3,2.8754095E2,1.0729172E3,2.7831354E2,2.1284698E2,7.469398E1,4.044532E2,6.6846405E2,1.3562207E2,1.4269147E2,1.9727509E2,1.5571906E1,5.131271E1,2.3381271E1,2.0205518E2,2.02398E2,3.681923E2,3.0027173E2,1.0984699E2,2.5775084E1,4.668144E1,9.601003E1,4.131271E0,1.1440636E1,2.4393812E1,2.6918896E1,5.131271E0,1.825E1],"tree_param":{"num_deleted":"0","num_feature":"30","num_nodes":"29","size_leaf_vector":"1"}},{"base_weights":[-7.2737504E-3,3.310816E-1,-1.6134764E0,6.773768E-1,-9.7920245E-1,-1.7852297E0,-1.1072888E0,1.10802926E-1,1.0399808E0,-1.5088172E0,-4.248786E-1,-9.0826765E-2,-1.2656472E0,-8.4289986E-1,-9.144577E-2,3.3237416E-2,-1.9962022E-2,6.738646E-2,3.0767286E-2,-1.0930402E-2,-7.690614E-2,-3.79544E-2,3.5234315E-3,-7.915562E-3,-7.6872334E-2,5.9339285E-2,-4.5753352E-2],"categories":[],"categories_nodes":[],"categories_segments":[],"categories_sizes":[],"default_left":[0,0,0,0,0,0,0,0,0,0,0,0,0,0,0,0,0,0,0,0,0,0,0,0,0,0,0],"id":1,"left_children":[1,3,5,7,9,11,13,15,17,19,21,-1,23,25,-1,-1,-1,-1,-1,-1,-1,-1,-1,-1,-1,-1,-1],"loss_changes":[8.9058295E2,6.1484674E2,2.2812866E1,2.1995853E2,8.254895E1,1.137207E0,1.2743111E1,1.186917E2,8.4513916E1,5.1281433E0,2.3204824E1,0E0,4.362421E0,9.383926E0,0E0,0E0,0E0,0E0,0E0,0E0,0E0,0E0,0E0,0E0,0E0,0E0,0E0],"parents":[2147483647,0,0,1,1,2,2,3,3,4,4,5,5,6,6,7,7,8,8,9,9,10,10,12,12,13,13],"right_children":[2,4,6,8,10,12,14,16,18,20,22,-1,24,26,-1,-1,-1,-1,-1,-1,-1,-1,-1,-1,-1,-1,-1],"split_conditions":[1E0,1E0,9.38E1,1E0,1E0,1E0,7.84985E3,6E0,1.8E1,3E0,1.015E2,-9.0826765E-2,1E0,9.42E1,-9.144577E-2,3.3237416E-2,-1.9962022E-2,6.738646E-2,3.0767286E-2,-1.0930402E-2,-7.690614E-2,-3.79544E-2,3.5234315E-3,-7.915562E-3,-7.6872334E-2,5.9339285E-2,-4.5753352E-2],"split_indices":[25,24,2,10,23,28,3,1,1,1,2,0,7,2,0,0,0,0,0,0,0,0,0,0,0,0,0],"split_type":[0,0,0,0,0,0,0,0,0,0,0,0,0,0,0,0,0,0,0,0,0,0,0,0,0,0,0],"sum_hessian":[1.636723E3,1.352587E3,2.84136E2,1.0702212E3,2.823659E2,2.1026471E2,7.387126E1,4.1815448E2,6.520667E2,1.4352074E2,1.3884517E2,1.9596164E2,1.4303078E1,5.565023E1,1.8221031E1,2.0030495E2,2.1784953E2,3.7680707E2,2.7525964E2,3.3753812E0,1.4014536E2,8.258969E1,5.625548E1,3.130714E0,1.1172363E1,1.3804495E0,5.426978E1],"tree_param":{"num_deleted":"0","num_feature":"30","num_nodes":"27","size_leaf_vector":"1"}},{"base_weights":[-1.8772053E-2,2.9544947E-1,-1.5397646E0,6.227521E-1,-8.916136E-1,-1.7071136E0,-1.0420101E0,3.0852662E-2,9.944507E-1,-1.4217008E0,-3.834261E-1,-8.686355E-2,-1.182626E0,-5.592097E-1,-1.3822371E0,3.0914772E-2,-2.4034223E-2,6.634601E-2,3.1710695E-2,-7.644545E-2,-4.6238642E-2,-4.714824E-2,-6.5059843E-3,1.3863444E-2,-8.422861E-2,4.4482287E-2,-3.3303425E-2,-1.3779554E-2,-7.964713E-2],"categories":[],"categories_nodes":[],"categories_segments":[],"categories_sizes":[],"default_left":[0,0,0,0,0,0,0,0,0,0,0,0,0,0,0,0,0,0,0,0,0,0,0,0,0,0,0,0,0],"id":2,"left_children":[1,3,5,7,9,11,13,15,17,19,21,-1,23,25,27,-1,-1,-1,-1,-1,-1,-1,-1,-1,-1,-1,-1,-1,-1],"loss_changes":[7.862629E2,5.3032153E2,2.1684448E1,2.3524777E2,7.895296E1,1.2550659E0,1.1290474E1,1.2456717E2,7.7829285E1,6.261627E0,2.1426233E1,0E0,1.1099033E1,5.552869E0,9.448082E0,0E0,0E0,0E0,0E0,0E0,0E0,0E0,0E0,0E0,0E0,0E0,0E0,0E0,0E0],"parents":[2147483647,0,0,1,1,2,2,3,3,4,4,5,5,6,6,7,7,8,8,9,9,10,10,12,12,13,13,14,14],"right_children":[2,4,6,8,10,12,14,16,18,20,22,-1,24,26,28,-1,-1,-1,-1,-1,-1,-1,-1,-1,-1,-1,-1,-1,-1],"split_conditions":[1E0,1E0,9.335E1,1E0,1E0,1E0,1E0,5E0,1.4E1,1E0,8.145E1,-8.686355E-2,1E0,9.42E1,6.2E1,3.0914772E-2,-2.4034223E-2,6.634601E-2,3.1710695E-2,-7.644545E-2,-4.6238642E-2,-4.714824E-2,-6.5059843E-3,1.3863444E-2,-8.422861E-2,4.4482287E-2,-3.3303425E-2,-1.3779554E-2,-7.964713E-2],"split_indices":[25,24,2,10,23,28,13,1,1,28,2,0,7,2,1,0,0,0,0,0,0,0,0,0,0,0,0,0,0],"split_type":[0,0,0,0,0,0,0,0,0,0,0,0,0,0,0,0,0,0,0,0,0,0,0,0,0,0,0,0,0],"sum_hessian":[1.6431953E3,1.3625186E3,2.8067667E2,1.0684076E3,2.94111E2,2.0823636E2,7.2440315E1,4.1254565E2,6.55862E2,1.4307391E2,1.5103708E2,1.9472745E2,1.3508897E1,3.103856E1,4.1401752E1,1.9192857E2,2.2061707E2,3.3968057E2,3.1618143E2,1.1597623E2,2.7097685E1,4.6219143E1,1.0481793E2,3.5708382E0,9.938059E0,1.6288056E0,2.9409756E1,6.9912033E0,3.441055E1],"tree_param":{"num_deleted":"0","num_feature":"30","num_nodes":"29","size_leaf_vector":"1"}},{"base_weights":[3.209342E-2,3.3693117E-1,-1.4599785E0,6.3815165E-1,-8.432232E-1,-8.196031E-2,-9.4080305E-1,8.9440994E-2,9.717893E-1,-1.3481637E0,-3.4822986E-1,-6.4112103E-1,-8.009024E-2,2.7929384E-2,-1.7748125E-2,6.163562E-2,2.9619455E-2,-7.3738225E-2,-4.0515423E-2,-3.966224E-2,-7.1470626E-3,3.639413E-2,-3.661003E-2],"categories":[],"categories_nodes":[],"categories_segments":[],"categories_sizes":[],"default_left":[0,0,0,0,0,0,0,0,0,0,0,0,0,0,0,0,0,0,0,0,0,0,0],"id":3,"left_children":[1,3,5,7,9,-1,11,13,15,17,19,21,-1,-1,-1,-1,-1,-1,-1,-1,-1,-1,-1],"loss_changes":[7.567355E2,4.9161063E2,2.4721436E1,2.0148923E2,6.984535E1,0E0,1.3786163E1,8.72323E1,6.70448E1,8.264099E0,1.298802E1,7.1563587E0,0E0,0E0,0E0,0E0,0E0,0E0,0E0,0E0,0E0,0E0,0E0],"parents":[2147483647,0,0,1,1,2,2,3,3,4,4,6,6,7,7,8,8,9,9,10,10,11,11],"right_children":[2,4,6,8,10,-1,12,14,16,18,20,22,-1,-1,-1,-1,-1,-1,-1,-1,-1,-1,-1],"split_conditions":[1E0,1E0,9.335E1,1E0,1E0,-8.196031E-2,7.2E1,6E0,1.52485E3,1E0,8.145E1,9.42E1,-8.009024E-2,2.7929384E-2,-1.7748125E-2,6.163562E-2,2.9619455E-2,-7.3738225E-2,-4.0515423E-2,-3.966224E-2,-7.1470626E-3,3.639413E-2,-3.661003E-2],"split_indices":[25,24,2,10,23,0,1,1,3,28,2,2,0,0,0,0,0,0,0,0,0,0,0],"split_type":[0,0,0,0,0,0,0,0,0,0,0,0,0,0,0,0,0,0,0,0,0,0,0],"sum_hessian":[1.6616592E3,1.3804089E3,2.8125024E2,1.1000845E3,2.8032434E2,2.0747064E2,7.377961E1,4.1644858E2,6.83636E2,1.3791464E2,1.4240971E2,5.2119724E1,2.1659883E1,2.0245961E2,2.1398895E2,4.037309E2,2.7990506E2,1.10227325E2,2.7687315E1,4.405194E1,9.835777E1,2.8150709E0,4.9304653E1],"tree_param":{"num_deleted":"0","num_feature":"30","num_nodes":"23","size_leaf_vector":"1"}},{"base_weights":[-5.422454E-3,2.8470376E-1,-1.3862153E0,5.817215E-1,-8.54139E-1,-1.5550438E0,-8.7666655E-1,5.4920398E-2,9.043995E-1,-1.2948494E0,-4.2096192E-1,-7.9062596E-2,-1.135565E0,-6.199212E-1,-1.4200091E0,2.7743015E-2,-2.1501016E-2,5.9770953E-2,2.7360851E-2,-3.1255543E-2,-7.0181794E-2,-4.0218532E-2,-7.4762027E-3,-1.0183842E-2,-6.841065E-2,-5.7885777E-2,-1.9643717E-2,-2.851267E-2,-8.1579424E-2],"categories":[],"categories_nodes":[],"categories_segments":[],"categories_sizes":[],"default_left":[0,0,0,0,0,0,0,0,0,0,0,0,0,0,0,0,0,0,0,0,0,0,0,0,0,0,0,0,0],"id":4,"left_children":[1,3,5,7,9,11,13,15,17,19,21,-1,23,25,27,-1,-1,-1,-1,-1,-1,-1,-1,-1,-1,-1,-1,-1,-1],"loss_changes":[6.54683E2,4.5731116E2,2.3047241E1,1.8213104E2,5.2863586E1,5.333252E-1,9.290852E0,9.9194954E1,6.842554E1,9.191254E0,1.47172165E1,0E0,3.1912804E0,5.807783E0,3.1368217E0,0E0,0E0,0E0,0E0,0E0,0E0,0E0,0E0,0E0,0E0,0E0,0E0,0E0,0E0],"parents":[2147483647,0,0,1,1,2,2,3,3,4,4,5,5,6,6,7,7,8,8,9,9,10,10,12,12,13,13,14,14],"right_children":[2,4,6,8,10,12,14,16,18,20,22,-1,24,26,28,-1,-1,-1,-1,-1,-1,-1,-1,-1,-1,-1,-1,-1,-1],"split_conditions":[1E0,1E0,9.335E1,1E0,1E0,1E0,7.2E1,6E0,1.6E1,1.3E1,9.38E1,-7.9062596E-2,1E0,1E0,1.0425E2,2.7743015E-2,-2.1501016E-2,5.9770953E-2,2.7360851E-2,-3.1255543E-2,-7.0181794E-2,-4.0218532E-2,-7.4762027E-3,-1.0183842E-2,-6.841065E-2,-5.7885777E-2,-1.9643717E-2,-2.851267E-2,-8.1579424E-2],"split_indices":[25,24,2,10,23,28,1,1,1,1,2,0,7,26,2,0,0,0,0,0,0,0,0,0,0,0,0,0,0],"split_type":[0,0,0,0,0,0,0,0,0,0,0,0,0,0,0,0,0,0,0,0,0,0,0,0,0,0,0,0,0],"sum_hessian":[1.6322535E3,1.349497E3,2.8275662E2,1.070732E3,2.787648E2,2.1084554E2,7.1911095E1,4.0716635E2,6.6356573E2,1.3719484E2,1.4156996E2,1.9584035E2,1.5005191E1,5.0289005E1,2.1622087E1,2.0041171E2,2.0675462E2,3.6435522E2,2.992105E2,2.0113485E1,1.1708136E2,5.786778E1,8.370218E1,3.372373E0,1.1632817E1,1.3711726E1,3.657728E1,5.0470576E0,1.6575031E1],"tree_param":{"num_deleted":"0","num_feature":"30","num_nodes":"29","size_leaf_vector":"1"}},{"base_weights":[-1.2562768E-2,2.6611277E-1,-1.3380703E0,5.442559E-1,-8.085318E-1,-1.4885048E0,-8.981817E-1,8.091586E-2,8.4042245E-1,-1.3548167E0,-2.9749486E-1,-1.5249169E0,-1.005389E0,-6.15481E-1,-7.481872E-2,3.1653654E-2,-1.5240728E-2,5.7110827E-2,2.5861068E-2,-7.3212795E-2,-4.3555263E-2,-3.3175252E-2,-1.4720339E-3,-7.736783E-2,-5.497091E-2,1.2350002E-3,-6.7144714E-2,-1.7524635E-2,-5.922363E-2],"categories":[],"categories_nodes":[],"categories_segments":[],"categories_sizes":[],"default_left":[0,0,0,0,0,0,0,0,0,0,0,0,0,0,0,0,0,0,0,0,0,0,0,0,0,0,0,0,0],"id":5,"left_children":[1,3,5,7,9,11,13,15,17,19,21,23,25,27,-1,-1,-1,-1,-1,-1,-1,-1,-1,-1,-1,-1,-1,-1,-1],"loss_changes":[5.9856854E2,4.0066718E2,1.7291077E1,1.4597754E2,7.656625E1,2.130066E0,1.1636539E1,8.881872E1,6.272812E1,5.7638397E0,1.4081889E1,1.2930298E-1,6.12772E0,7.444006E0,0E0,0E0,0E0,0E0,0E0,0E0,0E0,0E0,0E0,0E0,0E0,0E0,0E0,0E0,0E0],"parents":[2147483647,0,0,1,1,2,2,3,3,4,4,5,5,6,6,7,7,8,8,9,9,10,10,11,11,12,12,13,13],"right_children":[2,4,6,8,10,12,14,16,18,20,22,24,26,28,-1,-1,-1,-1,-1,-1,-1,-1,-1,-1,-1,-1,-1,-1,-1],"split_conditions":[1E0,1E0,9.38E1,1E0,1E0,1E0,7.2E1,4E0,1.4E1,1E0,9.38E1,1E0,1E0,1E0,-7.481872E-2,3.1653654E-2,-1.5240728E-2,5.7110827E-2,2.5861068E-2,-7.3212795E-2,-4.3555263E-2,-3.3175252E-2,-1.4720339E-3,-7.736783E-2,-5.497091E-2,1.2350002E-3,-6.7144714E-2,-1.7524635E-2,-5.922363E-2],"split_indices":[25,24,2,10,23,28,1,1,1,28,2,0,7,27,0,0,0,0,0,0,0,0,0,0,0,0,0,0,0],"split_type":[0,0,0,0,0,0,0,0,0,0,0,0,0,0,0,0,0,0,0,0,0,0,0,0,0,0,0,0,0],"sum_hessian":[1.6184756E3,1.3379775E3,2.8049802E2,1.0632716E3,2.74706E2,2.0724118E2,7.3256836E1,4.1511496E2,6.481566E2,1.3197603E2,1.4272995E2,1.90711E2,1.6530182E1,5.112467E1,2.2132172E1,1.7046297E2,2.4465198E2,3.3386804E2,3.1428857E2,1.0597269E2,2.6003338E1,5.9716198E1,8.3013756E1,1.7865283E2,1.2058172E1,4.308171E0,1.2222011E1,3.598287E1,1.51418E1],"tree_param":{"num_deleted":"0","num_feature":"30","num_nodes":"29","size_leaf_vector":"1"}},{"base_weights":[-6.8972055E-3,2.5865027E-1,-1.3281982E0,5.3597933E-1,-8.0371845E-1,-7.309578E-2,-7.406023E-1,6.143169E-2,8.397159E-1,-1.1357906E0,-1.3206963E-1,-3.726373E-1,-7.707147E-2,1.9400733E-2,-2.1655623E-2,4.574536E-2,-2.2618352E-2,-6.865392E-2,-4.1968416E-2,3.5734721E-3,-3.607351E-2,-5.0471555E-2,-6.629908E-3],"categories":[],"categories_nodes":[],"categories_segments":[],"categories_sizes":[],"default_left":[0,0,0,0,0,0,0,0,0,0,0,0,0,0,0,0,0,0,0,0,0,0,0],"id":6,"left_children":[1,3,5,7,9,-1,11,13,15,17,19,21,-1,-1,-1,-1,-1,-1,-1,-1,-1,-1,-1],"loss_changes":[5.623105E2,3.9359708E2,1.9989258E1,1.5256345E2,6.1551727E1,0E0,1.4673162E1,6.708099E1,6.3128174E1,1.1859024E1,1.1167267E1,5.486967E0,0E0,0E0,0E0,0E0,0E0,0E0,0E0,0E0,0E0,0E0,0E0],"parents":[2147483647,0,0,1,1,2,2,3,3,4,4,6,6,7,7,8,8,9,9,10,10,11,11],"right_children":[2,4,6,8,10,-1,12,14,16,18,20,22,-1,-1,-1,-1,-1,-1,-1,-1,-1,-1,-1],"split_conditions":[1E0,1E0,1.0315E2,1E0,9.38E1,-7.309578E-2,7.84985E3,1E1,5.5E1,5.975E1,6.68895E3,1E0,-7.707147E-2,1.9400733E-2,-2.1655623E-2,4.574536E-2,-2.2618352E-2,-6.865392E-2,-4.1968416E-2,3.5734721E-3,-3.607351E-2,-5.0471555E-2,-6.629908E-3],"split_indices":[25,24,2,10,2,0,3,1,1,2,3,26,0,0,0,0,0,0,0,0,0,0,0],"split_type":[0,0,0,0,0,0,0,0,0,0,0,0,0,0,0,0,0,0,0,0,0,0,0],"sum_hessian":[1.6006471E3,1.3334602E3,2.6718692E2,1.0578153E3,2.756449E2,2.1644353E2,5.0743393E1,4.1329675E2,6.445185E2,1.8398782E2,9.165708E1,3.5772102E1,1.49712925E1,2.4904796E2,1.6424881E2,6.0935E2,3.516851E1,1.0016943E2,8.381839E1,6.8782875E1,2.2874208E1,8.915395E0,2.6856707E1],"tree_param":{"num_deleted":"0","num_feature":"30","num_nodes":"23","size_leaf_vector":"1"}},{"base_weights":[2.5885685E-3,2.5204977E-1,-1.2772686E0,4.9995214E-1,-6.884349E-1,-1.4436121E0,-8.124745E-1,3.107922E-2,7.949407E-1,-1.1578635E0,-2.5791338E-1,-7.368553E-2,-9.793223E-1,9.9698186E-1,-8.929892E-1,3.5221644E-2,-9.509987E-3,5.460096E-2,2.1638243E-2,-6.424259E-2,-2.9881595E-2,-3.0981654E-2,-4.28456E-3,-1.1613498E-2,-5.9936848E-2,1.2012492E-2,6.362256E-2,-3.573982E-2,-7.469599E-2],"categories":[],"categories_nodes":[],"categories_segments":[],"categories_sizes":[],"default_left":[0,0,0,0,0,0,0,0,0,0,0,0,0,0,0,0,0,0,0,0,0,0,0,0,0,0,0,0,0],"id":7,"left_children":[1,3,5,7,9,11,13,15,17,19,21,-1,23,25,27,-1,-1,-1,-1,-1,-1,-1,-1,-1,-1,-1,-1,-1,-1],"loss_changes":[5.194251E2,3.177768E2,1.9344849E1,1.4908533E2,5.7185654E1,1.2698975E0,1.141341E1,6.2321697E1,7.072266E1,8.89212E0,9.269712E0,0E0,2.1475925E0,4.3422723E-1,6.3936844E0,0E0,0E0,0E0,0E0,0E0,0E0,0E0,0E0,0E0,0E0,0E0,0E0,0E0,0E0],"parents":[2147483647,0,0,1,1,2,2,3,3,4,4,5,5,6,6,7,7,8,8,9,9,10,10,12,12,13,13,14,14],"right_children":[2,4,6,8,10,12,14,16,18,20,22,-1,24,26,28,-1,-1,-1,-1,-1,-1,-1,-1,-1,-1,-1,-1,-1,-1],"split_conditions":[1E0,1E0,9.335E1,1E0,1E0,1E0,9.42E1,2E0,1.6E1,1E0,8.195E1,-7.368553E-2,1E0,6.8E1,7.84985E3,3.5221644E-2,-9.509987E-3,5.460096E-2,2.1638243E-2,-6.424259E-2,-2.9881595E-2,-3.0981654E-2,-4.28456E-3,-1.1613498E-2,-5.9936848E-2,1.2012492E-2,6.362256E-2,-3.573982E-2,-7.469599E-2],"split_indices":[25,24,2,10,23,28,2,1,1,28,2,0,7,1,3,0,0,0,0,0,0,0,0,0,0,0,0,0,0],"split_type":[0,0,0,0,0,0,0,0,0,0,0,0,0,0,0,0,0,0,0,0,0,0,0,0,0,0,0,0,0],"sum_hessian":[1.6248823E3,1.3605049E3,2.6437744E2,1.0770687E3,2.8343613E2,1.9314693E2,7.1230515E1,4.1637003E2,6.6069867E2,1.3478304E2,1.4865308E2,1.7934634E2,1.3800573E1,2.549584E0,6.868093E1,1.0244515E2,3.1392487E2,3.6186224E2,2.9883643E2,1.0882267E2,2.5960373E1,4.7109898E1,1.0154319E2,3.6004665E0,1.0200108E1,1.1800517E0,1.3695321E0,5.466169E1,1.4019244E1],"tree_param":{"num_deleted":"0","num_feature":"30","num_nodes":"29","size_leaf_vector":"1"}},{"base_weights":[-4.8151342E-4,2.3606993E-1,-1.2058097E0,4.8774225E-1,-7.5030416E-1,-1.3426331E0,-6.124442E-1,2.4680987E-2,7.804163E-1,-1.1674045E0,-3.268527E-1,-1.3954432E0,-8.045851E-1,-3.4202352E-1,-7.111773E-2,1.9633599E-2,-1.9203147E-2,5.3219456E-2,2.1891197E-2,-6.056404E-2,2.299284E-2,2.4343826E-2,-2.143813E-2,-7.102582E-2,-4.8969768E-2,4.6366793E-3,-5.1809855E-2,-6.0366493E-2,-2.727205E-3],"categories":[],"categories_nodes":[],"categories_segments":[],"categories_sizes":[],"default_left":[0,0,0,0,0,0,0,0,0,0,0,0,0,0,0,0,0,0,0,0,0,0,0,0,0,0,0,0,0],"id":8,"left_children":[1,3,5,7,9,11,13,15,17,19,21,23,25,27,-1,-1,-1,-1,-1,-1,-1,-1,-1,-1,-1,-1,-1,-1,-1],"loss_changes":[4.5411023E2,3.3087573E2,2.0391052E1,1.4382178E2,4.7490463E1,4.8866577E0,1.0639544E1,6.2130974E1,6.2798615E1,1.027832E1,1.1477388E1,6.036072E-1,4.5155106E0,9.735363E0,0E0,0E0,0E0,0E0,0E0,0E0,0E0,0E0,0E0,0E0,0E0,0E0,0E0,0E0,0E0],"parents":[2147483647,0,0,1,1,2,2,3,3,4,4,5,5,6,6,7,7,8,8,9,9,10,10,11,11,12,12,13,13],"right_children":[2,4,6,8,10,12,14,16,18,20,22,24,26,28,-1,-1,-1,-1,-1,-1,-1,-1,-1,-1,-1,-1,-1,-1,-1],"split_conditions":[1E0,1E0,1.0315E2,1E0,1E0,1E0,7.9622E3,7E0,1.6E1,6.3109E3,2.3E1,9.53E1,1E0,1E0,-7.111773E-2,1.9633599E-2,-1.9203147E-2,5.3219456E-2,2.1891197E-2,-6.056404E-2,2.299284E-2,2.4343826E-2,-2.143813E-2,-7.102582E-2,-4.8969768E-2,4.6366793E-3,-5.1809855E-2,-6.0366493E-2,-2.727205E-3],"split_indices":[25,24,2,10,21,28,3,1,1,3,1,2,7,26,0,0,0,0,0,0,0,0,0,0,0,0,0,0,0],"split_type":[0,0,0,0,0,0,0,0,0,0,0,0,0,0,0,0,0,0,0,0,0,0,0,0,0,0,0,0,0],"sum_hessian":[1.5906884E3,1.3303959E3,2.6029242E2,1.0603534E3,2.7004254E2,2.1049251E2,4.9799923E1,4.1106363E2,6.4928973E2,1.3515639E2,1.3488614E2,1.9022787E2,2.0264631E1,3.8400642E1,1.1399279E1,2.1633614E2,1.9472748E2,3.5386572E2,2.9542404E2,1.3185674E2,3.2996514E0,1.4592278E1,1.2029387E2,1.7713829E2,1.3089581E1,4.2805185E0,1.5984114E1,8.778338E0,2.9622305E1],"tree_param":{"num_deleted":"0","num_feature":"30","num_nodes":"29","size_leaf_vector":"1"}},{"base_weights":[1.5547842E-2,2.3888381E-1,-1.1626996E0,4.66381E-1,-6.7635065E-1,-1.3226471E0,-7.0627224E-1,8.512849E-2,8.025146E-1,-1.1258396E0,-2.7361637E-1,-1.3628824E0,-7.855321E-1,-4.300422E-1,-1.3347245E0,-1.1079896E-2,2.2416355E-2,4.1183677E-2,-8.856963E-2,-2.8450534E-2,-6.126116E-2,-2.4305185E-2,3.8847716E-3,-6.936052E-2,-4.8717152E-2,9.156899E-3,-5.7331122E-2,5.1720478E-2,-2.6650537E-2,-3.3977922E-2,-7.199898E-2],"categories":[],"categories_nodes":[],"categories_segments":[],"categories_sizes":[],"default_left":[0,0,0,0,0,0,0,0,0,0,0,0,0,0,0,0,0,0,0,0,0,0,0,0,0,0,0,0,0,0,0],"id":9,"left_children":[1,3,5,7,9,11,13,15,17,19,21,23,25,27,29,-1,-1,-1,-1,-1,-1,-1,-1,-1,-1,-1,-1,-1,-1,-1,-1],"loss_changes":[4.187205E2,2.7882257E2,1.7576508E1,1.3729808E2,4.7971413E1,2.9622803E0,1.1220692E1,5.6175266E1,3.247693E1,6.2597656E0,1.06370325E1,2.7651978E-1,5.5845137E0,7.890853E0,4.192505E-1,0E0,0E0,0E0,0E0,0E0,0E0,0E0,0E0,0E0,0E0,0E0,0E0,0E0,0E0,0E0,0E0],"parents":[2147483647,0,0,1,1,2,2,3,3,4,4,5,5,6,6,7,7,8,8,9,9,10,10,11,11,12,12,13,13,14,14],"right_children":[2,4,6,8,10,12,14,16,18,20,22,24,26,28,30,-1,-1,-1,-1,-1,-1,-1,-1,-1,-1,-1,-1,-1,-1,-1,-1],"split_conditions":[1E0,1E0,9.335E1,1E0,1E0,1E0,7.2E1,1E0,6.3109E3,1.3E1,1.015E2,1E0,1E0,9.42E1,1.037E2,-1.1079896E-2,2.2416355E-2,4.1183677E-2,-8.856963E-2,-2.8450534E-2,-6.126116E-2,-2.4305185E-2,3.8847716E-3,-6.936052E-2,-4.8717152E-2,9.156899E-3,-5.7331122E-2,5.1720478E-2,-2.6650537E-2,-3.3977922E-2,-7.199898E-2],"split_indices":[25,24,2,28,23,28,1,10,3,1,2,0,7,2,2,0,0,0,0,0,0,0,0,0,0,0,0,0,0,0,0],"split_type":[0,0,0,0,0,0,0,0,0,0,0,0,0,0,0,0,0,0,0,0,0,0,0,0,0,0,0,0,0,0,0],"sum_hessian":[1.5891603E3,1.336605E3,2.5255527E2,1.0709039E3,2.6570108E2,1.8561255E2,6.694272E1,5.023627E2,5.685412E2,1.24713615E2,1.4098747E2,1.7124701E2,1.4365548E1,4.7672867E1,1.9269854E1,2.7256638E2,2.2979633E2,5.6458E2,3.9611728E0,1.9906475E1,1.0480714E2,8.7612366E1,5.337511E1,1.5873755E2,1.2509457E1,4.0347214E0,1.0330826E1,2.5375223E0,4.513534E1,3.6993518E0,1.5570502E1],"tree_param":{"num_deleted":"0","num_feature":"30","num_nodes":"31","size_leaf_vector":"1"}},{"base_weights":[-1.1737562E-2,2.0797534E-1,-1.1692188E0,4.2762432E-1,-6.5679646E-1,-6.646479E-2,-7.312881E-1,4.073112E-2,6.8340755E-1,-1.0058532E0,3.582354E-2,-5.11074E-1,-1.2803335E0,1.9592093E-2,-2.5306253E-2,4.841065E-2,1.7697703E-2,-5.823266E-2,-3.2625522E-2,1.3887152E-2,-2.7759312E-2,-5.7402015E-2,-1.2686469E-2,-8.437466E-3,-7.026645E-2],"categories":[],"categories_nodes":[],"categories_segments":[],"categories_sizes":[],"default_left":[0,0,0,0,0,0,0,0,0,0,0,0,0,0,0,0,0,0,0,0,0,0,0,0,0],"id":10,"left_children":[1,3,5,7,9,-1,11,13,15,17,19,21,23,-1,-1,-1,-1,-1,-1,-1,-1,-1,-1,-1,-1],"loss_changes":[3.9372507E2,2.4744653E2,1.634262E1,1.0272116E2,6.3851974E1,0E0,7.608284E0,7.9746025E1,5.8299683E1,9.089951E0,1.2938652E1,7.976778E0,2.388691E0,0E0,0E0,0E0,0E0,0E0,0E0,0E0,0E0,0E0,0E0,0E0,0E0],"parents":[2147483647,0,0,1,1,2,2,3,3,4,4,6,6,7,7,8,8,9,9,10,10,11,11,12,12],"right_children":[2,4,6,8,10,-1,12,14,16,18,20,22,24,-1,-1,-1,-1,-1,-1,-1,-1,-1,-1,-1,-1],"split_conditions":[1E0,1E0,9.335E1,1E0,9.38E1,-6.646479E-2,7.2E1,1E1,1.5E1,1E0,6.5908E3,1E0,7.3798E3,1.9592093E-2,-2.5306253E-2,4.841065E-2,1.7697703E-2,-5.823266E-2,-3.2625522E-2,1.3887152E-2,-2.7759312E-2,-5.7402015E-2,-1.2686469E-2,-8.437466E-3,-7.026645E-2],"split_indices":[25,24,2,10,2,0,1,1,1,23,3,26,3,0,0,0,0,0,0,0,0,0,0,0,0],"split_type":[0,0,0,0,0,0,0,0,0,0,0,0,0,0,0,0,0,0,0,0,0,0,0,0,0],"sum_hessian":[1.5462312E3,1.3002401E3,2.4599107E2,1.0372802E3,2.6296E2,1.7865266E2,6.733841E1,4.1329565E2,6.2398456E2,1.7454369E2,8.841629E1,4.943971E1,1.78987E1,2.5186707E2,1.6142859E2,3.3362982E2,2.903547E2,1.1883882E2,5.570487E1,6.311239E1,2.53039E1,1.3230688E1,3.6209023E1,2.0467741E0,1.5851928E1],"tree_param":{"num_deleted":"0","num_feature":"30","num_nodes":"25","size_leaf_vector":"1"}},{"base_weights":[-8.990642E-3,2.0363332E-1,-1.1494937E0,4.1594452E-1,-6.433215E-1,-1.2823838E0,-7.9323435E-1,8.4998555E-2,7.1448E-1,-1.0287064E0,-2.6798624E-1,-1.305784E0,-8.213033E-1,-2.7344677E-1,-9.705947E-1,1.870898E-2,-1.5058711E-2,4.0247038E-2,3.4450132E-3,1.4797387E-2,-5.3060424E-2,3.61564E-2,-2.0158231E-2,-6.692886E-2,-4.470092E-2,-6.9843205E-3,-6.1980166E-2,-6.693274E-2,5.64322E-3,-2.0598508E-2,-5.6248266E-2],"categories":[],"categories_nodes":[],"categories_segments":[],"categories_sizes":[],"default_left":[0,0,0,0,0,0,0,0,0,0,0,0,0,0,0,0,0,0,0,0,0,0,0,0,0,0,0,0,0,0,0],"id":11,"left_children":[1,3,5,7,9,11,13,15,17,19,21,23,25,27,29,-1,-1,-1,-1,-1,-1,-1,-1,-1,-1,-1,-1,-1,-1,-1,-1],"loss_changes":[3.730272E2,2.334173E2,1.0426392E1,1.024252E2,3.7372124E1,8.0947876E-1,6.0302086E0,5.517782E1,3.1785675E1,5.827713E0,1.813822E1,1.0219727E0,2.9973426E0,7.873221E0,3.8935013E0,0E0,0E0,0E0,0E0,0E0,0E0,0E0,0E0,0E0,0E0,0E0,0E0,0E0,0E0,0E0,0E0],"parents":[2147483647,0,0,1,1,2,2,3,3,4,4,5,5,6,6,7,7,8,8,9,9,10,10,11,11,12,12,13,13,14,14],"right_children":[2,4,6,8,10,12,14,16,18,20,22,24,26,28,30,-1,-1,-1,-1,-1,-1,-1,-1,-1,-1,-1,-1,-1,-1,-1,-1],"split_conditions":[1E0,1E0,9.335E1,1E0,1E0,1E0,6.2E1,1.3E1,1E0,4.02E1,2.3E1,1E0,6.7E1,4.51585E3,1E0,1.870898E-2,-1.5058711E-2,4.0247038E-2,3.4450132E-3,1.4797387E-2,-5.3060424E-2,3.61564E-2,-2.0158231E-2,-6.692886E-2,-4.470092E-2,-6.9843205E-3,-6.1980166E-2,-6.693274E-2,5.64322E-3,-2.0598508E-2,-5.6248266E-2],"split_indices":[25,24,2,28,21,0,1,1,19,3,1,28,1,3,15,0,0,0,0,0,0,0,0,0,0,0,0,0,0,0,0],"split_type":[0,0,0,0,0,0,0,0,0,0,0,0,0,0,0,0,0,0,0,0,0,0,0,0,0,0,0,0,0,0,0],"sum_hessian":[1.5363022E3,1.2955874E3,2.4071489E2,1.0363167E3,2.5927075E2,1.734251E2,6.7289795E1,4.9208887E2,5.442278E2,1.2706391E2,1.3220683E2,1.6330524E2,1.0119862E1,1.776574E1,4.9524055E1,2.8139816E2,2.106907E2,4.771246E2,6.710316E1,2.8488941E0,1.2421502E2,1.5345528E1,1.16861305E2,1.4917406E2,1.4131167E1,4.355897E0,5.7639647E0,4.0721197E0,1.369362E1,1.1516768E1,3.8007286E1],"tree_param":{"num_deleted":"0","num_feature":"30","num_nodes":"31","size_leaf_vector":"1"}},{"base_weights":[-1.2820852E-2,1.8473108E-1,-1.0938898E0,3.8228852E-1,-6.111505E-1,-1.2365326E0,-7.1198124E-1,4.9423462E-1,-5.0277865E-1,-9.5893455E-1,-3.0778903E-1,-1.2828983E0,-6.151437E-1,-2.5001982E-1,-1.0293711E0,4.034188E-2,9.33934E-3,1.34417955E-2,-4.872015E-2,-5.61286E-2,-1.626685E-2,-2.3674319E-2,-2.4981962E-3,-6.550828E-2,-4.1164752E-2,2.4355134E-2,-5.1792737E-2,2.5537787E-2,-2.6818117E-2,1.729708E-2,-5.401337E-2],"categories":[],"categories_nodes":[],"categories_segments":[],"categories_sizes":[],"default_left":[0,0,0,0,0,0,0,0,0,0,0,0,0,0,0,0,0,0,0,0,0,0,0,0,0,0,0,0,0,0,0],"id":12,"left_children":[1,3,5,7,9,11,13,15,17,19,21,23,25,27,29,-1,-1,-1,-1,-1,-1,-1,-1,-1,-1,-1,-1,-1,-1,-1,-1],"loss_changes":[3.2767365E2,2.0420953E2,1.2033356E1,1.03283905E2,2.6963638E1,4.144226E0,9.539837E0,8.8621735E1,4.293423E1,1.2065788E1,5.934598E0,9.0667725E-1,6.9089956E0,6.4896407E0,3.1236992E0,0E0,0E0,0E0,0E0,0E0,0E0,0E0,0E0,0E0,0E0,0E0,0E0,0E0,0E0,0E0,0E0],"parents":[2147483647,0,0,1,1,2,2,3,3,4,4,5,5,6,6,7,7,8,8,9,9,10,10,11,11,12,12,13,13,14,14],"right_children":[2,4,6,8,10,12,14,16,18,20,22,24,26,28,30,-1,-1,-1,-1,-1,-1,-1,-1,-1,-1,-1,-1,-1,-1,-1,-1],"split_conditions":[1E0,1E0,9.335E1,1E0,1E0,1E0,1E0,1.1E1,2.44E1,1E0,1.015E2,1E0,1E0,9.85E1,9.4E1,4.034188E-2,9.33934E-3,1.34417955E-2,-4.872015E-2,-5.61286E-2,-1.626685E-2,-2.3674319E-2,-2.4981962E-3,-6.550828E-2,-4.1164752E-2,2.4355134E-2,-5.1792737E-2,2.5537787E-2,-2.6818117E-2,1.729708E-2,-5.401337E-2],"split_indices":[25,24,2,11,23,28,13,1,3,28,2,0,7,2,2,0,0,0,0,0,0,0,0,0,0,0,0,0,0,0,0],"split_type":[0,0,0,0,0,0,0,0,0,0,0,0,0,0,0,0,0,0,0,0,0,0,0,0,0,0,0,0,0,0,0],"sum_hessian":[1.5323417E3,1.2962899E3,2.3605176E2,1.0389232E3,2.573667E2,1.7023225E2,6.58195E1,9.226634E2,1.16259796E2,1.1889748E2,1.3846922E2,1.574215E2,1.2810766E1,2.753297E1,3.8286533E1,4.5669073E2,4.6597266E2,4.4266422E1,7.199338E1,9.38797E1,2.5017778E1,8.3785835E1,5.4683384E1,1.4685806E2,1.0563434E1,3.4953303E0,9.315436E0,7.314789E0,2.0218182E1,1.1594347E0,3.7127098E1],"tree_param":{"num_deleted":"0","num_feature":"30","num_nodes":"31","size_leaf_vector":"1"}},{"base_weights":[4.6448718E-4,4.4525257E-1,-4.9163097E-1,6.5300286E-1,-5.537498E-1,-1.0069585E0,-5.0586298E-2,8.966498E-1,3.6600757E-1,1.22263454E-1,-8.321306E-1,-4.9845928E-1,-1.1412468E0,2.0634265E-1,-6.7004627E-1,4.8321832E-2,1.3386174E-2,3.691891E-3,3.934982E-2,-1.2171461E-2,3.995258E-2,-2.1417707E-2,-5.4949343E-2,-1.7446661E-4,-5.648599E-2,-5.8794428E-2,-3.528924E-2,1.8897487E-2,-1.4046453E-2,-2.186724E-2,-6.038208E-2],"categories":[],"categories_nodes":[],"categories_segments":[],"categories_sizes":[],"default_left":[0,0,0,0,0,0,0,0,0,0,0,0,0,0,0,0,0,0,0,0,0,0,0,0,0,0,0,0,0,0,0],"id":13,"left_children":[1,3,5,7,9,11,13,15,17,19,21,23,25,27,29,-1,-1,-1,-1,-1,-1,-1,-1,-1,-1,-1,-1,-1,-1,-1,-1],"loss_changes":[3.3396994E2,1.6669386E2,1.6459032E2,4.6096893E1,2.6168442E1,2.2239166E1,6.2429256E1,1.5471252E1,3.7645473E1,1.0409664E1,1.0114578E1,2.2353884E1,3.1443481E0,2.3302567E1,1.3855194E1,0E0,0E0,0E0,0E0,0E0,0E0,0E0,0E0,0E0,0E0,0E0,0E0,0E0,0E0,0E0,0E0],"parents":[2147483647,0,0,1,1,2,2,3,3,4,4,5,5,6,6,7,7,8,8,9,9,10,10,11,11,12,12,13,13,14,14],"right_children":[2,4,6,8,10,12,14,16,18,20,22,24,26,28,30,-1,-1,-1,-1,-1,-1,-1,-1,-1,-1,-1,-1,-1,-1,-1,-1],"split_conditions":[2.3E1,1E0,1E0,7E0,2.44E1,1E0,6E1,1E0,8.195E1,1E0,1.99E1,1E0,1E0,1E0,7.1E1,4.8321832E-2,1.3386174E-2,3.691891E-3,3.934982E-2,-1.2171461E-2,3.995258E-2,-2.1417707E-2,-5.4949343E-2,-1.7446661E-4,-5.648599E-2,-5.8794428E-2,-3.528924E-2,1.8897487E-2,-1.4046453E-2,-2.186724E-2,-6.038208E-2],"split_indices":[1,11,10,1,3,7,1,13,2,26,2,19,0,19,1,0,0,0,0,0,0,0,0,0,0,0,0,0,0,0,0],"split_type":[0,0,0,0,0,0,0,0,0,0,0,0,0,0,0,0,0,0,0,0,0,0,0,0,0,0,0,0,0,0,0],"sum_hessian":[1.5238256E3,8.004351E2,7.233905E2,6.6292175E2,1.3751338E2,3.330101E2,3.9038037E2,3.5738913E2,3.0553265E2,4.027393E1,9.723945E1,7.0555374E1,2.6245474E2,2.7640482E2,1.1397555E2,3.212104E2,3.6178738E1,1.8105463E2,1.2447801E2,2.6561905E1,1.3712026E1,3.9729897E1,5.750955E1,4.0110413E1,3.0444963E1,2.4153955E2,2.0915182E1,2.0458023E2,7.182459E1,8.080997E1,3.3165573E1],"tree_param":{"num_deleted":"0","num_feature":"30","num_nodes":"31","size_leaf_vector":"1"}},{"base_weights":[2.9119747E-2,2.1495557E-1,-1.0188729E0,4.0580446E-1,-5.390296E-1,-1.2175332E0,-5.188904E-1,-2.5858923E-3,6.6765314E-1,-9.606297E-1,-2.138816E-1,-1.2407552E0,-8.0879277E-1,8.567889E-1,-5.915874E-1,1.7782127E-2,-1.6964776E-2,4.4822738E-2,1.985429E-2,-1.2487718E-2,-5.188505E-2,-1.2245699E-2,6.1684944E-2,-3.87666E-2,-6.2743E-2,-6.0619414E-2,-7.199844E-3,3.220128E-3,6.521701E-2,1.853258E-3,-3.643514E-2],"categories":[],"categories_nodes":[],"categories_segments":[],"categories_sizes":[],"default_left":[0,0,0,0,0,0,0,0,0,0,0,0,0,0,0,0,0,0,0,0,0,0,0,0,0,0,0,0,0,0,0],"id":14,"left_children":[1,3,5,7,9,11,13,15,17,19,21,23,25,27,29,-1,-1,-1,-1,-1,-1,-1,-1,-1,-1,-1,-1,-1,-1,-1,-1],"loss_changes":[2.9740326E2,1.868441E2,2.2214142E1,1.10738174E2,3.5764954E1,5.5181885E-1,7.2219715E0,4.9038708E1,3.8705414E1,5.984894E0,7.0149345E0,3.263855E-2,2.9596567E0,1.2560287E0,5.5753174E0,0E0,0E0,0E0,0E0,0E0,0E0,0E0,0E0,0E0,0E0,0E0,0E0,0E0,0E0,0E0,0E0],"parents":[2147483647,0,0,1,1,2,2,3,3,4,4,5,5,6,6,7,7,8,8,9,9,10,10,11,11,12,12,13,13,14,14],"right_children":[2,4,6,8,10,12,14,16,18,20,22,24,26,28,30,-1,-1,-1,-1,-1,-1,-1,-1,-1,-1,-1,-1,-1,-1,-1,-1],"split_conditions":[1E0,1E0,9.335E1,1E0,6.935E1,1E0,9.42E1,6E0,1.6E1,1E1,7.9622E3,1.94E1,4.4598E3,6.8E1,5.8E1,1.7782127E-2,-1.6964776E-2,4.4822738E-2,1.985429E-2,-1.2487718E-2,-5.188505E-2,-1.2245699E-2,6.1684944E-2,-3.87666E-2,-6.2743E-2,-6.0619414E-2,-7.199844E-3,3.220128E-3,6.521701E-2,1.853258E-3,-3.643514E-2],"split_indices":[25,24,2,10,2,0,2,1,1,1,3,2,3,1,1,0,0,0,0,0,0,0,0,0,0,0,0,0,0,0,0],"split_type":[0,0,0,0,0,0,0,0,0,0,0,0,0,0,0,0,0,0,0,0,0,0,0,0,0,0,0,0,0,0,0],"sum_hessian":[1.5249424E3,1.2959349E3,2.2900745E2,1.034535E3,2.6139993E2,1.6286168E2,6.614576E1,4.0455847E2,6.2997656E2,1.129674E2,1.4843254E2,1.5218022E2,1.06814575E1,2.7786365E0,6.336712E1,1.9598839E2,2.0857007E2,3.4007956E2,2.89897E2,1.1464442E1,1.0150295E2,1.4613069E2,2.301851E0,6.122497E0,1.4605772E2,6.133891E0,4.547567E0,1.4158264E0,1.36281E0,1.147691E1,5.189021E1],"tree_param":{"num_deleted":"0","num_feature":"30","num_nodes":"31","size_leaf_vector":"1"}},{"base_weights":[-8.062146E-3,3.9252114E-1,-4.450379E-1,5.8810014E-1,-5.072788E-1,-9.8280823E-1,-1.681303E-2,8.279766E-1,3.54E-1,1.15161575E-1,-8.676106E-1,-5.22353E-1,-1.0976065E0,2.49346E-1,-5.7189393E-1,4.482993E-2,8.606156E-3,2.1558495E-3,3.833216E-2,-2.1859797E-2,1.5941912E-2,-6.69575E-2,-3.5097696E-2,-2.5453658E-3,-5.6720633E-2,-5.7195384E-2,-4.1675102E-2,-1.9310992E-3,2.4542196E-2,-9.007833E-3,-4.5436736E-2],"categories":[],"categories_nodes":[],"categories_segments":[],"categories_sizes":[],"default_left":[0,0,0,0,0,0,0,0,0,0,0,0,0,0,0,0,0,0,0,0,0,0,0,0,0,0,0,0,0,0,0],"id":15,"left_children":[1,3,5,7,9,11,13,15,17,19,21,23,25,27,29,-1,-1,-1,-1,-1,-1,-1,-1,-1,-1,-1,-1,-1,-1,-1,-1],"loss_changes":[2.6139062E2,1.3740413E2,1.6445119E2,3.567131E1,3.1419693E1,1.616098E1,5.9032555E1,1.4048416E1,4.1771168E1,5.99881E0,5.977745E0,1.8722818E1,2.1341553E0,1.880385E1,1.6922821E1,0E0,0E0,0E0,0E0,0E0,0E0,0E0,0E0,0E0,0E0,0E0,0E0,0E0,0E0,0E0,0E0],"parents":[2147483647,0,0,1,1,2,2,3,3,4,4,5,5,6,6,7,7,8,8,9,9,10,10,11,11,12,12,13,13,14,14],"right_children":[2,4,6,8,10,12,14,16,18,20,22,24,26,28,30,-1,-1,-1,-1,-1,-1,-1,-1,-1,-1,-1,-1,-1,-1,-1,-1],"split_conditions":[2.3E1,1E0,1E0,6E0,4.02E1,1E0,1E0,1E0,8.195E1,1E0,1.025E2,1E0,1E0,1E0,5.5E1,4.482993E-2,8.606156E-3,2.1558495E-3,3.833216E-2,-2.1859797E-2,1.5941912E-2,-6.69575E-2,-3.5097696E-2,-2.5453658E-3,-5.6720633E-2,-5.7195384E-2,-4.1675102E-2,-1.9310992E-3,2.4542196E-2,-9.007833E-3,-4.5436736E-2],"split_indices":[1,11,10,1,3,7,13,13,2,29,3,19,28,28,1,0,0,0,0,0,0,0,0,0,0,0,0,0,0,0,0],"split_type":[0,0,0,0,0,0,0,0,0,0,0,0,0,0,0,0,0,0,0,0,0,0,0,0,0,0,0,0,0,0,0],"sum_hessian":[1.4912772E3,7.7809015E2,7.131871E2,6.394474E2,1.3864276E2,3.1558115E2,3.9760593E2,3.1457425E2,3.248731E2,5.108261E1,8.756016E1,6.408536E1,2.5149577E2,2.691165E2,1.2848946E2,2.844456E2,3.0128668E1,1.8591234E2,1.3896078E2,1.3452853E1,3.7629757E1,2.0922028E1,6.663813E1,3.681295E1,2.7272406E1,2.1114745E2,4.034834E1,1.2313153E2,1.4598494E2,6.011365E1,6.837581E1],"tree_param":{"num_deleted":"0","num_feature":"30","num_nodes":"31","size_leaf_vector":"1"}},{"base_weights":[-6.535878E-3,1.663405E-1,-9.968597E-1,3.3515206E-1,-5.0130224E-1,-1.1946499E0,-5.182012E-1,-1.899289E-2,5.738087E-1,-9.247608E-1,-1.4180782E-1,-1.2489709E0,-5.0037605E-1,8.4157336E-1,-5.912728E-1,1.29142925E-2,-2.1867435E-2,3.2473214E-2,-3.8562078E-2,-1.2778654E-2,-4.9847625E-2,-2.0688767E-2,6.8649175E-3,-3.912647E-2,-6.32872E-2,-5.8920633E-2,2.8246604E-3,3.2378498E-3,6.3859046E-2,-1.7646633E-2,-4.691374E-2],"categories":[],"categories_nodes":[],"categories_segments":[],"categories_sizes":[],"default_left":[0,0,0,0,0,0,0,0,0,0,0,0,0,0,0,0,0,0,0,0,0,0,0,0,0,0,0,0,0,0,0],"id":16,"left_children":[1,3,5,7,9,11,13,15,17,19,21,23,25,27,29,-1,-1,-1,-1,-1,-1,-1,-1,-1,-1,-1,-1,-1,-1,-1,-1],"loss_changes":[2.5319446E2,1.420808E2,2.0189957E1,8.500538E1,3.8614468E1,5.211685E0,7.058735E0,4.7188988E1,6.1638733E1,5.3820724E0,1.0595619E1,1.2724304E-1,4.9368057E0,1.1964626E0,4.900177E0,0E0,0E0,0E0,0E0,0E0,0E0,0E0,0E0,0E0,0E0,0E0,0E0,0E0,0E0,0E0,0E0],"parents":[2147483647,0,0,1,1,2,2,3,3,4,4,5,5,6,6,7,7,8,8,9,9,10,10,11,11,12,12,13,13,14,14],"right_children":[2,4,6,8,10,12,14,16,18,20,22,24,26,28,30,-1,-1,-1,-1,-1,-1,-1,-1,-1,-1,-1,-1,-1,-1,-1,-1],"split_conditions":[1E0,1E0,9.335E1,1E0,1E0,1E0,9.42E1,1E1,5.5E1,1E1,4.7984E3,1.94E1,1E0,6.8E1,7.1E1,1.29142925E-2,-2.1867435E-2,3.2473214E-2,-3.8562078E-2,-1.2778654E-2,-4.9847625E-2,-2.0688767E-2,6.8649175E-3,-3.912647E-2,-6.32872E-2,-5.8920633E-2,2.8246604E-3,3.2378498E-3,6.3859046E-2,-1.7646633E-2,-4.691374E-2],"split_indices":[25,24,2,10,23,28,2,1,1,1,3,2,23,1,1,0,0,0,0,0,0,0,0,0,0,0,0,0,0,0,0],"split_type":[0,0,0,0,0,0,0,0,0,0,0,0,0,0,0,0,0,0,0,0,0,0,0,0,0,0,0,0,0,0,0],"sum_hessian":[1.47694E3,1.2581436E3,2.1879643E2,1.00462506E3,2.5351852E2,1.5376302E2,6.503341E1,4.048237E2,5.9980133E2,1.1568157E2,1.3783694E2,1.418644E2,1.1898623E1,2.7801945E0,6.2253216E1,2.4369177E2,1.6113193E2,5.683503E2,3.1451063E1,1.1706574E1,1.03975E2,6.956687E1,6.827007E1,6.578476E0,1.3528592E2,4.862261E0,7.0363626E0,1.4115841E0,1.3686104E0,3.8100674E1,2.4152546E1],"tree_param":{"num_deleted":"0","num_feature":"30","num_nodes":"31","size_leaf_vector":"1"}},{"base_weights":[-1.702617E-2,-3.3574396E-1,4.29867E-1,1.722594E-1,-6.174503E-1,5.569498E-1,-1.8145676E-1,-1.13747016E-1,7.7969766E-1,-8.711968E-1,-3.2554314E-1,6.2144464E-1,-6.333348E-1,5.7619248E-2,-7.3174554E-1,1.6651398E-2,-1.738119E-2,2.7360572E-2,4.991189E-2,-4.836827E-2,-8.359263E-3,-2.7142938E-3,-4.2810038E-2,3.7182953E-2,-1.3681873E-3,5.982121E-3,-4.7125857E-2,-7.719601E-3,2.3419812E-2,-6.330891E-2,-1.9034289E-2],"categories":[],"categories_nodes":[],"categories_segments":[],"categories_sizes":[],"default_left":[0,0,0,0,0,0,0,0,0,0,0,0,0,0,0,0,0,0,0,0,0,0,0,0,0,0,0,0,0,0,0],"id":17,"left_children":[1,3,5,7,9,11,13,15,17,19,21,23,25,27,29,-1,-1,-1,-1,-1,-1,-1,-1,-1,-1,-1,-1,-1,-1,-1,-1],"loss_changes":[2.0791835E2,1.2204079E2,4.7312927E1,5.3028934E1,4.0330795E1,3.903534E1,1.3901151E1,2.1854988E1,4.4163704E0,1.96577E1,3.6887383E1,3.7922287E1,6.2513733E0,6.5486703E0,5.517685E0,0E0,0E0,0E0,0E0,0E0,0E0,0E0,0E0,0E0,0E0,0E0,0E0,0E0,0E0,0E0,0E0],"parents":[2147483647,0,0,1,1,2,2,3,3,4,4,5,5,6,6,7,7,8,8,9,9,10,10,11,11,12,12,13,13,14,14],"right_children":[2,4,6,8,10,12,14,16,18,20,22,24,26,28,30,-1,-1,-1,-1,-1,-1,-1,-1,-1,-1,-1,-1,-1,-1,-1,-1],"split_conditions":[1E0,1.3E1,1E0,1E0,1E0,1E0,5.2E1,2E0,8.005E1,1E0,1E0,1E0,4.02E1,9.38E1,1E0,1.6651398E-2,-1.738119E-2,2.7360572E-2,4.991189E-2,-4.836827E-2,-8.359263E-3,-2.7142938E-3,-4.2810038E-2,3.7182953E-2,-1.3681873E-3,5.982121E-3,-4.7125857E-2,-7.719601E-3,2.3419812E-2,-6.330891E-2,-1.9034289E-2],"split_indices":[28,1,13,10,23,11,1,1,2,0,25,19,3,2,4,0,0,0,0,0,0,0,0,0,0,0,0,0,0,0,0],"split_type":[0,0,0,0,0,0,0,0,0,0,0,0,0,0,0,0,0,0,0,0,0,0,0,0,0,0,0,0,0,0,0],"sum_hessian":[1.4577513E3,8.510462E2,6.067052E2,3.0372498E2,5.473212E2,5.0236237E2,1.043428E2,2.0705016E2,9.667482E1,2.9173758E2,2.5558362E2,4.769946E2,2.5367771E1,7.336448E1,3.0978313E1,7.099823E1,1.3605191E2,4.8540573E1,4.8134247E1,2.5634637E2,3.5391212E1,1.6985884E2,8.572477E1,4.0126346E2,7.573115E1,7.562711E0,1.780506E1,4.880122E1,2.4563263E1,1.12481165E1,1.9730196E1],"tree_param":{"num_deleted":"0","num_feature":"30","num_nodes":"31","size_leaf_vector":"1"}},{"base_weights":[9.737097E-3,1.6891815E-1,-9.199512E-1,-1.2237175E-1,4.9095982E-1,-1.137626E0,-4.200483E-1,2.0477015E-1,-3.737676E-1,7.071854E-1,1.182138E-1,-1.2354304E0,-1.0108086E0,-1.8875104E-1,-9.991439E-1,2.2877196E-2,-1.8096946E-2,-3.5157163E-2,-4.063146E-4,3.7369944E-2,-1.7528791E-2,-3.277828E-2,1.6720628E-2,-3.7762295E-2,-6.338445E-2,-1.4432088E-2,-5.669138E-2,-4.074948E-2,2.9439707E-3,-1.1539201E-2,-6.208716E-2],"categories":[],"categories_nodes":[],"categories_segments":[],"categories_sizes":[],"default_left":[0,0,0,0,0,0,0,0,0,0,0,0,0,0,0,0,0,0,0,0,0,0,0,0,0,0,0,0,0,0,0],"id":18,"left_children":[1,3,5,7,9,11,13,15,17,19,21,23,25,27,29,-1,-1,-1,-1,-1,-1,-1,-1,-1,-1,-1,-1,-1,-1,-1,-1],"loss_changes":[2.1739853E2,1.1771472E2,2.289119E1,5.430286E1,4.7941406E1,5.9962463E-1,8.749594E0,4.1300713E1,4.493907E1,1.6294235E1,3.701581E1,2.7616882E-1,5.9260483E0,7.6339884E0,3.2202492E0,0E0,0E0,0E0,0E0,0E0,0E0,0E0,0E0,0E0,0E0,0E0,0E0,0E0,0E0,0E0,0E0],"parents":[2147483647,0,0,1,1,2,2,3,3,4,4,5,5,6,6,7,7,8,8,9,9,10,10,11,11,12,12,13,13,14,14],"right_children":[2,4,6,8,10,12,14,16,18,20,22,24,26,28,30,-1,-1,-1,-1,-1,-1,-1,-1,-1,-1,-1,-1,-1,-1,-1,-1],"split_conditions":[1E0,1E0,9.335E1,1.3E1,2.3E1,2.4433E3,7.2E1,1E0,1E0,1E0,1E0,1.94E1,5.835E1,1E0,1.0425E2,2.2877196E-2,-1.8096946E-2,-3.5157163E-2,-4.063146E-4,3.7369944E-2,-1.7528791E-2,-3.277828E-2,1.6720628E-2,-3.7762295E-2,-6.338445E-2,-1.4432088E-2,-5.669138E-2,-4.074948E-2,2.9439707E-3,-1.1539201E-2,-6.208716E-2],"split_indices":[25,28,2,1,1,3,1,11,23,11,10,2,2,26,2,0,0,0,0,0,0,0,0,0,0,0,0,0,0,0,0],"split_type":[0,0,0,0,0,0,0,0,0,0,0,0,0,0,0,0,0,0,0,0,0,0,0,0,0,0,0,0,0,0,0],"sum_hessian":[1.4669706E3,1.2532139E3,2.1375673E2,6.5834985E2,5.9486395E2,1.480256E2,6.5731125E1,2.8615775E2,3.7219214E2,3.7590732E2,2.1895665E2,7.8637146E1,6.938846E1,4.791806E1,1.7813068E1,1.9802411E2,8.813364E1,1.9532088E2,1.7687125E2,3.6242233E2,1.34849825E1,4.7373554E1,1.715831E2,6.487021E0,7.215012E1,1.0586732E1,5.8801727E1,1.2929412E1,3.4988647E1,4.742844E0,1.3070225E1],"tree_param":{"num_deleted":"0","num_feature":"30","num_nodes":"31","size_leaf_vector":"1"}},{"base_weights":[-6.291891E-3,1.4747925E-1,-8.9057237E-1,3.069739E-1,-4.6013358E-1,-1.0712786E0,-4.570844E-1,4.014181E-1,-4.506842E-1,-7.4897397E-1,-1.1726266E-1,-1.1186987E0,-5.151435E-1,8.8943906E-2,-6.6606116E-1,2.5996868E-2,-5.1527047E-3,5.511075E-3,-3.7302222E-2,-2.0371169E-2,-4.6480205E-2,6.815363E-2,-7.896765E-3,-5.730141E-2,-3.632268E-2,1.0526262E-2,-4.3979924E-2,-6.078313E-2,2.324505E-2,-5.5314656E-2,-1.5425061E-2],"categories":[],"categories_nodes":[],"categories_segments":[],"categories_sizes":[],"default_left":[0,0,0,0,0,0,0,0,0,0,0,0,0,0,0,0,0,0,0,0,0,0,0,0,0,0,0,0,0,0,0],"id":19,"left_children":[1,3,5,7,9,11,13,15,17,19,21,23,25,27,29,-1,-1,-1,-1,-1,-1,-1,-1,-1,-1,-1,-1,-1,-1,-1,-1],"loss_changes":[1.9510873E2,1.1860036E2,1.6160385E1,6.95049E1,2.5121262E1,3.3602905E0,7.394125E0,5.158943E1,1.7949636E1,8.133461E0,7.294278E0,6.32782E-1,3.7771232E0,9.724476E0,6.994972E0,0E0,0E0,0E0,0E0,0E0,0E0,0E0,0E0,0E0,0E0,0E0,0E0,0E0,0E0,0E0,0E0],"parents":[2147483647,0,0,1,1,2,2,3,3,4,4,5,5,6,6,7,7,8,8,9,9,10,10,11,11,12,12,13,13,14,14],"right_children":[2,4,6,8,10,12,14,16,18,20,22,24,26,28,30,-1,-1,-1,-1,-1,-1,-1,-1,-1,-1,-1,-1,-1,-1,-1,-1],"split_conditions":[1E0,1E0,9.335E1,1E0,8.195E1,1E0,6.2E1,1E0,2.44E1,2.6E1,8.265E1,1E0,1E0,4.51585E3,1E0,2.5996868E-2,-5.1527047E-3,5.511075E-3,-3.7302222E-2,-2.0371169E-2,-4.6480205E-2,6.815363E-2,-7.896765E-3,-5.730141E-2,-3.632268E-2,1.0526262E-2,-4.3979924E-2,-6.078313E-2,2.324505E-2,-5.5314656E-2,-1.5425061E-2],"split_indices":[25,24,2,11,2,28,1,13,3,1,2,0,7,3,4,0,0,0,0,0,0,0,0,0,0,0,0,0,0,0,0],"split_type":[0,0,0,0,0,0,0,0,0,0,0,0,0,0,0,0,0,0,0,0,0,0,0,0,0,0,0,0,0,0,0],"sum_hessian":[1.4329017E3,1.2213495E3,2.1155222E2,9.678021E2,2.5354733E2,1.482716E2,6.3280617E1,8.609522E2,1.0684991E2,1.3697382E2,1.16573524E2,1.3569012E2,1.2581488E1,1.7674332E1,4.5606285E1,6.9713794E2,1.6381427E2,3.7073E1,6.97769E1,4.8507446E1,8.846637E1,2.2478206E0,1.143257E2,1.2505525E2,1.0634862E1,4.3475027E0,8.233985E0,3.454249E0,1.4220083E1,1.9501635E1,2.6104649E1],"tree_param":{"num_deleted":"0","num_feature":"30","num_nodes":"31","size_leaf_vector":"1"}},{"base_weights":[8.34346E-3,-3.0156288E-1,4.303211E-1,1.4444412E-1,-5.4726535E-1,6.567331E-1,1.1176639E-1,4.2985156E-1,-4.991119E-1,-1.0592446E0,-4.073352E-1,2.9457554E-1,7.648927E-1,-3.256157E-1,3.299317E-1,7.7245967E-3,3.8057745E-2,-1.08594475E-4,-4.155274E-2,-5.388678E-2,2.063982E-2,-6.886031E-3,-3.5586543E-2,2.6080484E-2,-3.6551546E-2,3.0026993E-2,4.572093E-2,-4.3970523E-3,-4.8239455E-2,2.5817037E-2,-1.4913912E-2],"categories":[],"categories_nodes":[],"categories_segments":[],"categories_sizes":[],"default_left":[0,0,0,0,0,0,0,0,0,0,0,0,0,0,0,0,0,0,0,0,0,0,0,0,0,0,0,0,0,0,0],"id":20,"left_children":[1,3,5,7,9,11,13,15,17,19,21,23,25,27,29,-1,-1,-1,-1,-1,-1,-1,-1,-1,-1,-1,-1,-1,-1,-1,-1],"loss_changes":[1.8785019E2,9.083987E1,4.3795586E1,5.4396046E1,3.784207E1,1.3693436E1,2.4335371E1,1.8574306E1,1.5024258E1,3.5492096E0,3.4468887E1,1.9787594E1,6.159607E0,1.2828301E1,2.0050203E1,0E0,0E0,0E0,0E0,0E0,0E0,0E0,0E0,0E0,0E0,0E0,0E0,0E0,0E0,0E0,0E0],"parents":[2147483647,0,0,1,1,2,2,3,3,4,4,5,5,6,6,7,7,8,8,9,9,10,10,11,11,12,12,13,13,14,14],"right_children":[2,4,6,8,10,12,14,16,18,20,22,24,26,28,30,-1,-1,-1,-1,-1,-1,-1,-1,-1,-1,-1,-1,-1,-1,-1,-1],"split_conditions":[1E0,1.3E1,2.1E1,1E0,3.025E1,1E0,1E0,1E0,3.5E1,1E0,1E0,1E0,7.83E1,1E0,6E1,7.7245967E-3,3.8057745E-2,-1.08594475E-4,-4.155274E-2,-5.388678E-2,2.063982E-2,-6.886031E-3,-3.5586543E-2,2.6080484E-2,-3.6551546E-2,3.0026993E-2,4.572093E-2,-4.3970523E-3,-4.8239455E-2,2.5817037E-2,-1.4913912E-2],"split_indices":[28,1,1,11,2,26,9,10,3,19,19,15,2,13,1,0,0,0,0,0,0,0,0,0,0,0,0,0,0,0,0],"split_type":[0,0,0,0,0,0,0,0,0,0,0,0,0,0,0,0,0,0,0,0,0,0,0,0,0,0,0,0,0,0,0],"sum_hessian":[1.4344617E3,8.2722284E2,6.0723883E2,2.9398462E2,5.332382E2,3.543347E2,2.5290414E2,2.0389314E2,9.009149E1,1.1304759E2,4.2019064E2,8.2343254E1,2.7199142E2,8.400226E1,1.6890189E2,1.1214838E2,9.174477E1,3.6482048E1,5.360944E1,1.11909706E2,1.137882E0,2.2359586E2,1.9659479E2,6.782134E1,1.4521909E1,1.3196123E2,1.4003021E2,6.2062202E1,2.1940054E1,1.3038945E2,3.8512447E1],"tree_param":{"num_deleted":"0","num_feature":"30","num_nodes":"31","size_leaf_vector":"1"}},{"base_weights":[-3.1768363E-2,1.0406269E-1,-8.730865E-1,2.4327916E-1,-4.601014E-1,-1.1050142E0,-3.6215842E-1,3.2495105E-1,-3.795124E-1,-9.218489E-1,-9.713421E-2,-5.6733847E-2,-6.5156883E-1,-1.616024E-1,-9.139621E-1,3.4661524E-2,7.4500255E-3,7.2055347E-3,-3.3814073E-2,-5.1905733E-2,-2.4473192E-2,-2.534082E-2,1.5659117E-3,-5.454723E-2,-7.4122846E-4,2.9645626E-2,-1.5565795E-2,-4.2292657E-3,-5.965015E-2],"categories":[],"categories_nodes":[],"categories_segments":[],"categories_sizes":[],"default_left":[0,0,0,0,0,0,0,0,0,0,0,0,0,0,0,0,0,0,0,0,0,0,0,0,0,0,0,0,0],"id":21,"left_children":[1,3,5,7,9,11,13,15,17,19,21,-1,23,25,27,-1,-1,-1,-1,-1,-1,-1,-1,-1,-1,-1,-1,-1,-1],"loss_changes":[1.6027275E2,9.496927E1,2.2701416E1,4.9429173E1,4.003175E1,1.0576324E0,6.752859E0,5.5462616E1,1.7632772E1,4.7824707E0,7.12801E0,0E0,2.935854E0,5.487776E0,3.6961288E0,0E0,0E0,0E0,0E0,0E0,0E0,0E0,0E0,0E0,0E0,0E0,0E0,0E0,0E0],"parents":[2147483647,0,0,1,1,2,2,3,3,4,4,5,5,6,6,7,7,8,8,9,9,10,10,12,12,13,13,14,14],"right_children":[2,4,6,8,10,12,14,16,18,20,22,-1,24,26,28,-1,-1,-1,-1,-1,-1,-1,-1,-1,-1,-1,-1,-1,-1],"split_conditions":[1E0,1E0,9.335E1,1E0,1E0,1E0,7.2E1,5E0,2.44E1,1E0,1E0,-5.6733847E-2,4.4598E3,9.665E1,1.0425E2,3.4661524E-2,7.4500255E-3,7.2055347E-3,-3.3814073E-2,-5.1905733E-2,-2.4473192E-2,-2.534082E-2,1.5659117E-3,-5.454723E-2,-7.4122846E-4,2.9645626E-2,-1.5565795E-2,-4.2292657E-3,-5.965015E-2],"split_indices":[25,24,2,11,23,0,1,1,3,28,21,0,3,2,2,0,0,0,0,0,0,0,0,0,0,0,0,0,0],"split_type":[0,0,0,0,0,0,0,0,0,0,0,0,0,0,0,0,0,0,0,0,0,0,0,0,0,0,0,0,0],"sum_hessian":[1.4006969E3,1.206744E3,1.9395285E2,9.6835565E2,2.3838837E2,1.3259892E2,6.1353935E1,8.5651227E2,1.1184341E2,1.0424003E2,1.3414835E2,1.230473E2,9.551619E0,4.5947086E1,1.5406851E1,2.759615E2,5.805507E2,4.0644367E1,7.119904E1,8.104625E1,2.3193773E1,3.1318035E1,1.0283031E2,5.229656E0,4.321963E0,7.1173396E0,3.8829746E1,4.2066875E0,1.1200163E1],"tree_param":{"num_deleted":"0","num_feature":"30","num_nodes":"29","size_leaf_vector":"1"}},{"base_weights":[1.231302E-2,-2.9085487E-1,4.129109E-1,2.128493E-1,-5.7143867E-1,5.57087E-1,-9.458451E-2,-2.4793806E-2,7.199085E-1,-8.16193E-1,-2.9436302E-1,1.4225608E-1,6.768694E-1,-6.78852E-1,1.2443494E-1,1.7165506E-2,-1.0624531E-2,4.4882126E-2,2.175378E-2,-3.266028E-2,-5.231393E-2,-4.8064734E-3,-3.1054387E-2,2.8610317E-2,-1.1756941E-2,3.5394352E-2,-2.3042815E-2,-1.1057236E-2,-4.41687E-2,1.6670443E-2,-2.7347673E-2],"categories":[],"categories_nodes":[],"categories_segments":[],"categories_sizes":[],"default_left":[0,0,0,0,0,0,0,0,0,0,0,0,0,0,0,0,0,0,0,0,0,0,0,0,0,0,0,0,0,0,0],"id":22,"left_children":[1,3,5,7,9,11,13,15,17,19,21,23,25,27,29,-1,-1,-1,-1,-1,-1,-1,-1,-1,-1,-1,-1,-1,-1,-1,-1],"loss_changes":[1.7102246E2,1.1341195E2,4.4437332E1,3.4661816E1,3.469084E1,2.3384262E1,1.736766E1,1.3665043E1,4.255726E0,9.551849E0,1.5689068E1,1.7519522E1,1.3256454E1,3.2663708E0,1.4083694E1,0E0,0E0,0E0,0E0,0E0,0E0,0E0,0E0,0E0,0E0,0E0,0E0,0E0,0E0,0E0,0E0],"parents":[2147483647,0,0,1,1,2,2,3,3,4,4,5,5,6,6,7,7,8,8,9,9,10,10,11,11,12,12,13,13,14,14],"right_children":[2,4,6,8,10,12,14,16,18,20,22,24,26,28,30,-1,-1,-1,-1,-1,-1,-1,-1,-1,-1,-1,-1,-1,-1,-1,-1],"split_conditions":[1E0,1.3E1,4.1E1,1E0,1E0,1E0,1E0,2E0,1E0,1E0,1E0,2.9145E2,1E0,1E0,6.4E1,1.7165506E-2,-1.0624531E-2,4.4882126E-2,2.175378E-2,-3.266028E-2,-5.231393E-2,-4.8064734E-3,-3.1054387E-2,2.8610317E-2,-1.1756941E-2,3.5394352E-2,-2.3042815E-2,-1.1057236E-2,-4.41687E-2,1.6670443E-2,-2.7347673E-2],"split_indices":[28,1,1,10,10,26,9,1,4,25,13,3,11,7,1,0,0,0,0,0,0,0,0,0,0,0,0,0,0,0,0],"split_type":[0,0,0,0,0,0,0,0,0,0,0,0,0,0,0,0,0,0,0,0,0,0,0,0,0,0,0,0,0,0,0],"sum_hessian":[1.4062013E3,8.005944E2,6.056068E2,2.8650388E2,5.140906E2,4.7154596E2,1.3406084E2,1.9572478E2,9.0779106E1,2.7193314E2,2.4215744E2,1.0614202E2,3.6540393E2,3.5979794E1,9.808104E1,6.58173E1,1.2990749E2,5.4573868E1,3.6205242E1,1.6142342E2,1.1050971E2,1.5151999E2,9.063744E1,4.9374973E1,5.6767048E1,3.5607416E2,9.329794E0,1.1754728E1,2.4225063E1,7.51832E1,2.2897848E1],"tree_param":{"num_deleted":"0","num_feature":"30","num_nodes":"31","size_leaf_vector":"1"}},{"base_weights":[-4.011734E-4,1.2519144E-1,-7.985148E-1,2.6039323E-1,-4.2037225E-1,-1.0045964E0,-3.7860784E-1,2.5807206E-2,4.864438E-1,-7.6842815E-1,-1.2697536E-1,-1.030341E0,-6.0788673E-1,-1.565152E-1,-9.33209E-1,1.3570808E-2,-1.1120476E-2,2.8298918E-2,-2.2729205E-3,-4.255221E-2,1.6765272E-3,1.9501627E-3,-2.799647E-2,-2.9684884E-2,-5.227856E-2,-5.3208448E-2,3.2579885E-3,-2.9447988E-2,1.43576255E-2,-1.0502119E-2,-5.9097987E-2],"categories":[],"categories_nodes":[],"categories_segments":[],"categories_sizes":[],"default_left":[0,0,0,0,0,0,0,0,0,0,0,0,0,0,0,0,0,0,0,0,0,0,0,0,0,0,0,0,0,0,0],"id":23,"left_children":[1,3,5,7,9,11,13,15,17,19,21,23,25,27,29,-1,-1,-1,-1,-1,-1,-1,-1,-1,-1,-1,-1,-1,-1,-1,-1],"loss_changes":[1.3985985E2,8.9034485E1,1.6036385E1,5.1253418E1,2.4391869E1,6.671753E-1,7.7443666E0,2.9047783E1,2.0851616E1,7.28286E0,9.458804E0,1.6062164E-1,3.1886115E0,9.175811E0,3.0106192E0,0E0,0E0,0E0,0E0,0E0,0E0,0E0,0E0,0E0,0E0,0E0,0E0,0E0,0E0,0E0,0E0],"parents":[2147483647,0,0,1,1,2,2,3,3,4,4,5,5,6,6,7,7,8,8,9,9,10,10,11,11,12,12,13,13,14,14],"right_children":[2,4,6,8,10,12,14,16,18,20,22,24,26,28,30,-1,-1,-1,-1,-1,-1,-1,-1,-1,-1,-1,-1,-1,-1,-1,-1],"split_conditions":[1E0,1E0,9.335E1,1E0,1E0,1E0,7.2E1,1E1,1E0,5.2761E3,6.1E1,1.94E1,4.4598E3,1.0585E2,1E0,1.3570808E-2,-1.1120476E-2,2.8298918E-2,-2.2729205E-3,-4.255221E-2,1.6765272E-3,1.9501627E-3,-2.799647E-2,-2.9684884E-2,-5.227856E-2,-5.3208448E-2,3.2579885E-3,-2.9447988E-2,1.43576255E-2,-1.0502119E-2,-5.9097987E-2],"split_indices":[25,24,2,28,21,0,1,1,13,3,1,2,3,2,13,0,0,0,0,0,0,0,0,0,0,0,0,0,0,0,0],"split_type":[0,0,0,0,0,0,0,0,0,0,0,0,0,0,0,0,0,0,0,0,0,0,0,0,0,0,0,0,0,0,0],"sum_hessian":[1.393292E3,1.2045802E3,1.887118E2,9.6576636E2,2.3881386E2,1.2565201E2,6.30598E1,4.7448227E2,4.912841E2,1.0849155E2,1.303223E2,1.164948E2,9.15721E0,4.5943657E1,1.7116138E1,2.3844698E2,2.3603531E2,4.2732306E2,6.396105E1,9.830335E1,1.0188199E1,9.486462E1,3.5457684E1,5.2739763E0,1.1122082E2,5.111095E0,4.046116E0,2.3100266E1,2.2843393E1,4.8527217E0,1.2263417E1],"tree_param":{"num_deleted":"0","num_feature":"30","num_nodes":"31","size_leaf_vector":"1"}},{"base_weights":[-1.2309829E-4,1.3007696E-1,-8.643983E-1,2.5535342E-1,-3.841845E-1,-9.942373E-1,-5.675894E-1,7.1405864E-1,1.5417218E-1,-2.397279E-1,-1.0547123E0,-1.0524518E0,-4.0170443E-1,-4.1714355E-1,-5.8130115E-2,1.971894E-2,5.1010914E-2,-5.0776782E-3,1.939103E-2,2.1371974E-2,-1.7129196E-2,-1.6577167E-2,-5.790874E-2,-2.7342279E-2,-5.351292E-2,-5.389014E-2,5.928545E-3,-2.8207896E-2,1.42960595E-2],"categories":[],"categories_nodes":[],"categories_segments":[],"categories_sizes":[],"default_left":[0,0,0,0,0,0,0,0,0,0,0,0,0,0,0,0,0,0,0,0,0,0,0,0,0,0,0,0,0],"id":24,"left_children":[1,3,5,7,9,11,13,15,17,19,21,23,25,27,-1,-1,-1,-1,-1,-1,-1,-1,-1,-1,-1,-1,-1,-1,-1],"loss_changes":[1.5575E2,7.759362E1,6.4190216E0,4.4810364E1,2.2609238E1,3.8797836E0,4.6601906E0,1.6689507E1,4.749411E1,1.3561052E1,2.7242126E0,4.3170166E-1,4.6217337E0,5.0643806E0,0E0,0E0,0E0,0E0,0E0,0E0,0E0,0E0,0E0,0E0,0E0,0E0,0E0,0E0,0E0],"parents":[2147483647,0,0,1,1,2,2,3,3,4,4,5,5,6,6,7,7,8,8,9,9,10,10,11,11,12,12,13,13],"right_children":[2,4,6,8,10,12,14,16,18,20,22,24,26,28,-1,-1,-1,-1,-1,-1,-1,-1,-1,-1,-1,-1,-1,-1,-1],"split_conditions":[1E0,1E0,9.335E1,2E0,1E0,1E0,7.84985E3,5.02E1,7.615E1,2.3E1,1.5E2,1.94E1,1E0,7.60975E3,-5.8130115E-2,1.971894E-2,5.1010914E-2,-5.0776782E-3,1.939103E-2,2.1371974E-2,-1.7129196E-2,-1.6577167E-2,-5.790874E-2,-2.7342279E-2,-5.351292E-2,-5.389014E-2,5.928545E-3,-2.8207896E-2,1.42960595E-2],"split_indices":[25,24,2,1,11,28,3,2,2,1,3,2,23,3,0,0,0,0,0,0,0,0,0,0,0,0,0,0,0],"split_type":[0,0,0,0,0,0,0,0,0,0,0,0,0,0,0,0,0,0,0,0,0,0,0,0,0,0,0,0,0],"sum_hessian":[1.3820923E3,1.2018823E3,1.802099E2,9.6685535E2,2.3502696E2,1.2373312E2,5.6476784E1,1.7363295E2,7.932224E2,1.9448515E2,4.054181E1,1.1195744E2,1.1775678E1,4.64366E1,1.0040182E1,8.606031E1,8.757265E1,3.7898865E2,4.1423376E2,2.5556868E1,1.6892828E2,5.6005154E0,3.494129E1,4.887588E0,1.07069855E2,4.6549563E0,7.1207213E0,3.8569168E1,7.867433E0],"tree_param":{"num_deleted":"0","num_feature":"30","num_nodes":"29","size_leaf_vector":"1"}},{"base_weights":[-6.980514E-3,1.0211025E-1,-7.638971E-1,2.2262248E-1,-4.054544E-1,-9.3353647E-1,-1.8808123E-1,-4.9580473E-2,4.1524923E-1,-7.10886E-1,-1.64894E-1,-1.0070555E0,-3.5672128E-1,1.5803131E-1,-5.7176333E-2,2.2513192E-2,-1.0054334E-2,5.0446715E-2,1.6289933E-2,-4.249151E-2,-1.0995515E-2,3.1871818E-2,-1.1481068E-2,-5.202168E-2,-3.0206537E-2,2.0365765E-2,-3.1400472E-2,-3.4905605E-2,1.6645744E-2],"categories":[],"categories_nodes":[],"categories_segments":[],"categories_sizes":[],"default_left":[0,0,0,0,0,0,0,0,0,0,0,0,0,0,0,0,0,0,0,0,0,0,0,0,0,0,0,0,0],"id":25,"left_children":[1,3,5,7,9,11,13,15,17,19,21,23,25,27,-1,-1,-1,-1,-1,-1,-1,-1,-1,-1,-1,-1,-1,-1,-1],"loss_changes":[1.13886795E2,7.383086E1,1.6795563E1,5.113693E1,1.6904583E1,5.321205E0,1.3669461E1,3.075233E1,2.9994118E1,6.755657E0,6.944311E0,9.618988E-1,3.7154977E0,4.84714E0,0E0,0E0,0E0,0E0,0E0,0E0,0E0,0E0,0E0,0E0,0E0,0E0,0E0,0E0,0E0],"parents":[2147483647,0,0,1,1,2,2,3,3,4,4,5,5,6,6,7,7,8,8,9,9,10,10,11,11,12,12,13,13],"right_children":[2,4,6,8,10,12,14,16,18,20,22,24,26,28,-1,-1,-1,-1,-1,-1,-1,-1,-1,-1,-1,-1,-1,-1,-1],"split_conditions":[1E0,1E0,1.0315E2,1E0,1E0,1E0,7.84985E3,1E0,1.185E2,1E0,1.16175E3,9.53E1,1E0,1E0,-5.7176333E-2,2.2513192E-2,-1.0054334E-2,5.0446715E-2,1.6289933E-2,-4.249151E-2,-1.0995515E-2,3.1871818E-2,-1.1481068E-2,-5.202168E-2,-3.0206537E-2,2.0365765E-2,-3.1400472E-2,-3.4905605E-2,1.6645744E-2],"split_indices":[25,24,2,10,23,28,3,7,3,28,3,2,7,9,0,0,0,0,0,0,0,0,0,0,0,0,0,0,0],"split_type":[0,0,0,0,0,0,0,0,0,0,0,0,0,0,0,0,0,0,0,0,0,0,0,0,0,0,0,0,0],"sum_hessian":[1.3772874E3,1.2045469E3,1.7274046E2,9.738781E2,2.3066873E2,1.3295097E2,3.9789505E1,4.038856E2,5.6999255E2,1.0076968E2,1.2989905E2,1.17259544E2,1.5691426E1,2.9821272E1,9.968232E0,9.34864E1,3.103992E2,7.328952E1,4.9670303E2,7.797278E1,2.27969E1,9.036668E0,1.2086239E2,1.06827805E2,1.0431734E1,3.9802687E0,1.1711158E1,4.5508246E0,2.5270447E1],"tree_param":{"num_deleted":"0","num_feature":"30","num_nodes":"29","size_leaf_vector":"1"}},{"base_weights":[-8.793669E-3,1.05397075E-1,-8.101561E-1,2.2514582E-1,-3.7302557E-1,-9.2444324E-1,-3.2043746E-1,-3.463784E-2,4.1067216E-1,-7.943437E-1,-7.245946E-2,-9.8636407E-1,-4.9158135E-1,9.350717E-1,-6.493661E-1,2.4892895E-2,-1.03496825E-2,4.8385732E-2,1.6548468E-2,-6.998889E-3,-4.577846E-2,-1.6777681E-2,4.654715E-3,-5.0810613E-2,-3.28375E-2,-5.495406E-2,-1.2507828E-2,9.629128E-2,-1.9976636E-2,-1.0227115E-2,-5.8175754E-2],"categories":[],"categories_nodes":[],"categories_segments":[],"categories_sizes":[],"default_left":[0,0,0,0,0,0,0,0,0,0,0,0,0,0,0,0,0,0,0,0,0,0,0,0,0,0,0,0,0,0,0],"id":26,"left_children":[1,3,5,7,9,11,13,15,17,19,21,23,25,27,29,-1,-1,-1,-1,-1,-1,-1,-1,-1,-1,-1,-1,-1,-1,-1,-1],"loss_changes":[1.2404315E2,6.8061615E1,9.166176E0,4.578329E1,3.0070171E1,3.1749725E0,1.4450244E1,3.649883E1,2.4279243E1,7.721718E0,6.1271286E0,4.981079E-1,2.5237145E0,1.0512764E1,5.97178E0,0E0,0E0,0E0,0E0,0E0,0E0,0E0,0E0,0E0,0E0,0E0,0E0,0E0,0E0,0E0,0E0],"parents":[2147483647,0,0,1,1,2,2,3,3,4,4,5,5,6,6,7,7,8,8,9,9,10,10,11,11,12,12,13,13,14,14],"right_children":[2,4,6,8,10,12,14,16,18,20,22,24,26,28,30,-1,-1,-1,-1,-1,-1,-1,-1,-1,-1,-1,-1,-1,-1,-1,-1],"split_conditions":[1E0,1E0,1.0585E2,1E0,1E0,1E0,1E0,1E0,1.185E2,1.3E1,9.38E1,6.5219E3,5.6E1,1.09E2,7.1E1,2.4892895E-2,-1.03496825E-2,4.8385732E-2,1.6548468E-2,-6.998889E-3,-4.577846E-2,-1.6777681E-2,4.654715E-3,-5.0810613E-2,-3.28375E-2,-5.495406E-2,-1.2507828E-2,9.629128E-2,-1.9976636E-2,-1.0227115E-2,-5.8175754E-2],"split_indices":[25,24,2,10,23,28,15,7,3,1,2,3,1,2,1,0,0,0,0,0,0,0,0,0,0,0,0,0,0,0,0],"split_type":[0,0,0,0,0,0,0,0,0,0,0,0,0,0,0,0,0,0,0,0,0,0,0,0,0,0,0,0,0,0,0],"sum_hessian":[1.3536088E3,1.1855425E3,1.680663E2,9.4863055E2,2.3691194E2,1.3554584E2,3.2520454E1,3.9556006E2,5.530705E2,9.795742E1,1.3895451E2,1.1746394E2,1.8081902E1,6.3686724E0,2.6151783E1,9.626363E1,2.9929642E2,6.783443E1,4.8523608E2,1.5647592E1,8.230983E1,5.327086E1,8.5683655E1,1.0580019E2,1.1663743E1,4.1320076E0,1.3949893E1,3.4009542E0,2.9677181E0,1.4770601E1,1.1381182E1],"tree_param":{"num_deleted":"0","num_feature":"30","num_nodes":"31","size_leaf_vector":"1"}},{"base_weights":[-3.014078E-2,2.58124E-1,-3.5448915E-1,3.9596036E-1,-3.847722E-1,-7.712837E-1,-7.911218E-2,7.6497287E-1,2.782941E-1,1.0701073E-1,-6.4376384E-1,-1.0365388E0,-6.817533E-1,1.0886729E-1,-4.8191184E-1,4.0864017E-2,4.993244E-3,4.486367E-3,3.018458E-2,1.0664168E-2,-7.529551E-2,-1.4732537E-2,-4.2516336E-2,-3.7995674E-2,-5.675022E-2,-2.680408E-2,-4.6284407E-2,1.45706935E-2,-1.800218E-2,-9.797572E-3,-3.807984E-2],"categories":[],"categories_nodes":[],"categories_segments":[],"categories_sizes":[],"default_left":[0,0,0,0,0,0,0,0,0,0,0,0,0,0,0,0,0,0,0,0,0,0,0,0,0,0,0,0,0,0,0],"id":27,"left_children":[1,3,5,7,9,11,13,15,17,19,21,23,25,27,29,-1,-1,-1,-1,-1,-1,-1,-1,-1,-1,-1,-1,-1,-1,-1,-1],"loss_changes":[1.2751295E2,6.414313E1,7.359009E1,2.56278E1,1.637152E1,5.353485E0,2.9394356E1,4.904335E0,2.7730114E1,8.036653E0,5.805908E0,8.391571E-1,6.3870544E0,2.2790785E1,9.7271385E0,0E0,0E0,0E0,0E0,0E0,0E0,0E0,0E0,0E0,0E0,0E0,0E0,0E0,0E0,0E0,0E0],"parents":[2147483647,0,0,1,1,2,2,3,3,4,4,5,5,6,6,7,7,8,8,9,9,10,10,11,11,12,12,13,13,14,14],"right_children":[2,4,6,8,10,12,14,16,18,20,22,24,26,28,30,-1,-1,-1,-1,-1,-1,-1,-1,-1,-1,-1,-1,-1,-1,-1,-1],"split_conditions":[2.3E1,1E0,1E0,9.685E1,2.44E1,2.485E1,1E0,1E0,8.34E1,1E0,1.99E1,1.98E1,1E0,1E0,5.5E1,4.0864017E-2,4.993244E-3,4.486367E-3,3.018458E-2,1.0664168E-2,-7.529551E-2,-1.4732537E-2,-4.2516336E-2,-3.7995674E-2,-5.675022E-2,-2.680408E-2,-4.6284407E-2,1.45706935E-2,-1.800218E-2,-9.797572E-3,-3.807984E-2],"split_indices":[1,11,10,3,3,2,13,19,2,27,2,2,6,19,1,0,0,0,0,0,0,0,0,0,0,0,0,0,0,0,0],"split_type":[0,0,0,0,0,0,0,0,0,0,0,0,0,0,0,0,0,0,0,0,0,0,0,0,0,0,0,0,0,0,0],"sum_hessian":[1.361822E3,7.2112555E2,6.406965E2,5.941289E2,1.2699661E2,2.5418146E2,3.8651505E2,1.423149E2,4.5181403E2,4.4011936E1,8.298468E1,6.1473663E1,1.927078E2,2.640277E2,1.22487335E2,1.3172646E2,1.0588427E1,2.868571E2,1.6495697E2,4.2105446E1,1.9064909E0,3.17501E1,5.1234577E1,1.842598E1,4.3047688E1,1.2265752E2,7.005027E1,1.9031628E2,7.371143E1,6.1405087E1,6.108225E1],"tree_param":{"num_deleted":"0","num_feature":"30","num_nodes":"31","size_leaf_vector":"1"}},{"base_weights":[6.9841384E-3,1.101263E-1,-7.222799E-1,1.9741942E-1,-4.9675092E-1,-9.267725E-1,-1.00433685E-1,4.9213547E-1,9.9688005E-3,6.163338E-2,-7.1139455E-1,-9.705697E-1,-5.2521825E-1,1.1506735E-1,-5.3162064E-2,2.8094335E-2,1.6022461E-3,-6.013546E-3,1.8551674E-2,6.605743E-3,-6.303094E-2,-1.5197496E-2,-4.7678716E-2,-5.1092472E-2,-2.7322078E-2,-2.7283195E-3,-5.6887757E-2,-1.7347163E-2,2.319621E-2],"categories":[],"categories_nodes":[],"categories_segments":[],"categories_sizes":[],"default_left":[0,0,0,0,0,0,0,0,0,0,0,0,0,0,0,0,0,0,0,0,0,0,0,0,0,0,0,0,0],"id":28,"left_children":[1,3,5,7,9,11,13,15,17,19,21,23,25,27,-1,-1,-1,-1,-1,-1,-1,-1,-1,-1,-1,-1,-1,-1,-1],"loss_changes":[1.0115206E2,6.2509247E1,2.1096313E1,5.6933945E1,1.7833996E1,1.693428E0,8.910959E0,1.2840195E1,2.971726E1,4.093277E0,1.029771E1,1.8726425E0,4.1179075E0,5.884811E0,0E0,0E0,0E0,0E0,0E0,0E0,0E0,0E0,0E0,0E0,0E0,0E0,0E0,0E0,0E0],"parents":[2147483647,0,0,1,1,2,2,3,3,4,4,5,5,6,6,7,7,8,8,9,9,10,10,11,11,12,12,13,13],"right_children":[2,4,6,8,10,12,14,16,18,20,22,24,26,28,-1,-1,-1,-1,-1,-1,-1,-1,-1,-1,-1,-1,-1,-1,-1],"split_conditions":[1E0,1E0,1.0315E2,1.1E1,3.5E1,1E0,7.9622E3,1E0,1E0,2.11E1,1.99E1,9.335E1,1E0,1E0,-5.3162064E-2,2.8094335E-2,1.6022461E-3,-6.013546E-3,1.8551674E-2,6.605743E-3,-6.303094E-2,-1.5197496E-2,-4.7678716E-2,-5.1092472E-2,-2.7322078E-2,-2.7283195E-3,-5.6887757E-2,-1.7347163E-2,2.319621E-2],"split_indices":[25,11,2,1,3,28,3,13,0,2,2,2,19,4,0,0,0,0,0,0,0,0,0,0,0,0,0,0,0],"split_type":[0,0,0,0,0,0,0,0,0,0,0,0,0,0,0,0,0,0,0,0,0,0,0,0,0,0,0,0,0],"sum_hessian":[1.3427302E3,1.1770984E3,1.6563184E2,1.0296661E3,1.474323E2,1.2427421E2,4.135762E1,3.9966855E2,6.2999756E2,4.113488E1,1.0629742E2,1.1077503E2,1.3499177E1,3.4513176E1,6.844446E0,3.4686194E2,5.280662E1,4.634818E2,1.6651573E2,3.990772E1,1.2271621E0,4.0468327E1,6.5829094E1,9.756902E1,1.3206006E1,8.249576E0,5.249602E0,1.4850849E1,1.9662325E1],"tree_param":{"num_deleted":"0","num_feature":"30","num_nodes":"29","size_leaf_vector":"1"}},{"base_weights":[3.6054358E-3,2.847081E-1,-2.4876018E-1,5.2787915E-2,5.3758115E-1,-1.0206877E0,-1.4211316E-1,5.143417E-1,-6.163971E-2,1.5875661E-1,6.246704E-1,-1.0451467E0,2.0937156E-2,2.9719898E-2,-5.1474047E-1,3.588023E-2,-2.3534497E-2,1.2712667E-2,-9.874631E-3,3.84945E-2,-7.836095E-3,2.5966361E-2,4.5631062E-2,-6.1413802E-2,-4.1718226E-2,9.193012E-3,-1.5818696E-2,-3.938158E-2,-1.0072219E-2],"categories":[],"categories_nodes":[],"categories_segments":[],"categories_sizes":[],"default_left":[0,0,0,0,0,0,0,0,0,0,0,0,0,0,0,0,0,0,0,0,0,0,0,0,0,0,0,0,0],"id":29,"left_children":[1,3,5,7,9,11,13,15,17,19,21,23,-1,25,27,-1,-1,-1,-1,-1,-1,-1,-1,-1,-1,-1,-1,-1,-1],"loss_changes":[9.453307E1,3.6941425E1,5.76612E1,1.7456484E1,9.846481E0,3.432846E0,3.9592583E1,1.348255E1,1.1434383E1,1.1243311E1,6.950844E0,2.2152176E0,0E0,2.2676086E1,1.652422E1,0E0,0E0,0E0,0E0,0E0,0E0,0E0,0E0,0E0,0E0,0E0,0E0,0E0,0E0],"parents":[2147483647,0,0,1,1,2,2,3,3,4,4,5,5,6,6,7,7,8,8,9,9,10,10,11,11,13,13,14,14],"right_children":[2,4,6,8,10,12,14,16,18,20,22,24,-1,26,28,-1,-1,-1,-1,-1,-1,-1,-1,-1,-1,-1,-1,-1,-1],"split_conditions":[1.8E1,1E0,3.025E1,1E0,1E0,1E0,5.6E1,3.577E2,2E0,1.6815E2,9.13E1,4.5E1,2.0937156E-2,1E0,9.95E1,3.588023E-2,-2.3534497E-2,1.2712667E-2,-9.874631E-3,3.84945E-2,-7.836095E-3,2.5966361E-2,4.5631062E-2,-6.1413802E-2,-4.1718226E-2,9.193012E-3,-1.5818696E-2,-3.938158E-2,-1.0072219E-2],"split_indices":[1,10,2,7,26,19,1,3,1,3,2,1,0,19,2,0,0,0,0,0,0,0,0,0,0,0,0,0,0],"split_type":[0,0,0,0,0,0,0,0,0,0,0,0,0,0,0,0,0,0,0,0,0,0,0,0,0,0,0,0,0],"sum_hessian":[1.3305671E3,6.293852E2,7.0118195E2,3.2892416E2,3.0046106E2,8.40736E1,6.1710834E2,6.465156E1,2.6427258E2,5.6690266E1,2.437708E2,8.293822E1,1.1353809E0,4.2297717E2,1.9413115E2,5.3817684E1,1.0833876E1,7.921222E1,1.8506038E2,1.8810625E1,3.7879642E1,1.805298E2,6.3241E1,4.1797207E1,4.114101E1,2.9296683E2,1.3001035E2,1.0294696E2,9.118419E1],"tree_param":{"num_deleted":"0","num_feature":"30","num_nodes":"29","size_leaf_vector":"1"}},{"base_weights":[2.3301383E-2,-2.2041412E-1,3.459043E-1,8.958699E-2,-4.507489E-1,5.112435E-1,1.0796188E-1,-1.160698E-1,5.2059984E-1,-7.155445E-1,-1.9346128E-1,3.4997344E-1,7.733478E-1,-2.995459E-1,2.9791322E-1,-3.7902729E-3,-5.2656468E-2,1.3756945E-2,4.0761724E-2,-4.426182E-2,-1.9888707E-2,9.994599E-4,-3.632934E-2,3.4607377E-2,1.08500095E-2,4.200559E-2,1.6643526E-2,-4.4913646E-3,-4.2739872E-2,-2.4709208E-2,1.9761669E-2],"categories":[],"categories_nodes":[],"categories_segments":[],"categories_sizes":[],"default_left":[0,0,0,0,0,0,0,0,0,0,0,0,0,0,0,0,0,0,0,0,0,0,0,0,0,0,0,0,0,0,0],"id":30,"left_children":[1,3,5,7,9,11,13,15,17,19,21,23,25,27,29,-1,-1,-1,-1,-1,-1,-1,-1,-1,-1,-1,-1,-1,-1,-1,-1],"loss_changes":[1.0544678E2,5.459674E1,2.26503E1,2.9004692E1,2.9737137E1,1.41117935E1,1.8503294E1,8.29154E0,7.417122E0,1.1280952E1,2.5480013E1,9.517338E0,3.5075912E0,8.7883625E0,1.2741747E1,0E0,0E0,0E0,0E0,0E0,0E0,0E0,0E0,0E0,0E0,0E0,0E0,0E0,0E0,0E0,0E0],"parents":[2147483647,0,0,1,1,2,2,3,3,4,4,5,5,6,6,7,7,8,8,9,9,10,10,11,11,12,12,13,13,14,14],"right_children":[2,4,6,8,10,12,14,16,18,20,22,24,26,28,30,-1,-1,-1,-1,-1,-1,-1,-1,-1,-1,-1,-1,-1,-1,-1,-1],"split_conditions":[1E0,1.8E1,2.3E1,1E0,1E0,1E0,1E0,1E0,8.385E1,1E0,1E0,2E0,1E0,3.3638E3,1E0,-3.7902729E-3,-5.2656468E-2,1.3756945E-2,4.0761724E-2,-4.426182E-2,-1.9888707E-2,9.994599E-4,-3.632934E-2,3.4607377E-2,1.08500095E-2,4.200559E-2,1.6643526E-2,-4.4913646E-3,-4.2739872E-2,-2.4709208E-2,1.9761669E-2],"split_indices":[28,1,1,10,23,23,9,25,2,15,25,1,19,3,10,0,0,0,0,0,0,0,0,0,0,0,0,0,0,0,0],"split_type":[0,0,0,0,0,0,0,0,0,0,0,0,0,0,0,0,0,0,0,0,0,0,0,0,0,0,0,0,0,0,0],"sum_hessian":[1.3391942E3,7.630516E2,5.7614264E2,3.2553467E2,4.375169E2,3.392554E2,2.3688725E2,2.2087524E2,1.0465942E2,2.1473474E2,2.2278215E2,2.1147328E2,1.2778212E2,7.513059E1,1.6175667E2,2.1281187E2,8.063378E0,5.814909E1,4.651033E1,1.3881871E2,7.591603E1,1.5977473E2,6.3007416E1,5.800541E1,1.5346788E2,1.1017535E2,1.760677E1,5.537661E1,1.975398E1,1.7253223E1,1.4450345E2],"tree_param":{"num_deleted":"0","num_feature":"30","num_nodes":"31","size_leaf_vector":"1"}},{"base_weights":[1.1394387E-2,1.1014071E-1,-7.043715E-1,-8.465452E-2,3.309562E-1,-8.944688E-1,-3.4899092E-1,1.8952604E-1,-3.015736E-1,4.2317182E-1,-1.3997044E-1,-9.646402E-1,-2.3084234E-1,1.2562104E0,-4.4178328E-1,2.8057867E-3,4.154455E-2,-2.950106E-2,-5.089429E-6,2.4764186E-2,-3.6995672E-4,6.320253E-3,-3.2199483E-2,-5.0404765E-2,-2.1708507E-2,-4.9655307E-2,1.4653519E-2,1.986741E-2,7.5063854E-2,7.3110027E-4,-3.3559106E-2],"categories":[],"categories_nodes":[],"categories_segments":[],"categories_sizes":[],"default_left":[0,0,0,0,0,0,0,0,0,0,0,0,0,0,0,0,0,0,0,0,0,0,0,0,0,0,0,0,0,0,0],"id":31,"left_children":[1,3,5,7,9,11,13,15,17,19,21,23,25,27,29,-1,-1,-1,-1,-1,-1,-1,-1,-1,-1,-1,-1,-1,-1,-1,-1],"loss_changes":[9.373256E1,5.015165E1,1.054953E1,3.6926903E1,2.3786407E1,4.625374E0,9.145022E0,2.3435171E1,3.0130026E1,1.4197884E1,1.219431E1,1.7254257E0,4.791907E0,1.2157583E-1,5.7953444E0,0E0,0E0,0E0,0E0,0E0,0E0,0E0,0E0,0E0,0E0,0E0,0E0,0E0,0E0,0E0,0E0],"parents":[2147483647,0,0,1,1,2,2,3,3,4,4,5,5,6,6,7,7,8,8,9,9,10,10,11,11,12,12,13,13,14,14],"right_children":[2,4,6,8,10,12,14,16,18,20,22,24,26,28,30,-1,-1,-1,-1,-1,-1,-1,-1,-1,-1,-1,-1,-1,-1,-1,-1],"split_conditions":[1E0,1E0,9.335E1,1.3E1,1E0,1E0,9.42E1,7.935E1,1E0,1E0,4.1E1,1E0,6.4E1,6.8E1,1E0,2.8057867E-3,4.154455E-2,-2.950106E-2,-5.089429E-6,2.4764186E-2,-3.6995672E-4,6.320253E-3,-3.2199483E-2,-5.0404765E-2,-2.1708507E-2,-4.9655307E-2,1.4653519E-2,1.986741E-2,7.5063854E-2,7.3110027E-4,-3.3559106E-2],"split_indices":[25,28,2,1,13,28,2,2,23,19,1,0,1,1,5,0,0,0,0,0,0,0,0,0,0,0,0,0,0,0,0],"split_type":[0,0,0,0,0,0,0,0,0,0,0,0,0,0,0,0,0,0,0,0,0,0,0,0,0,0,0,0,0,0,0],"sum_hessian":[1.3240703E3,1.1642919E3,1.5977838E2,6.189201E2,5.4537177E2,1.0310784E2,5.667054E1,2.734333E2,3.4548685E2,4.561509E2,8.922089E1,9.283766E1,1.0270182E1,2.4117732E0,5.425877E1,2.2725043E2,4.6182858E1,1.7606812E2,1.6941873E2,3.9058545E2,6.5565445E1,5.8861584E1,3.03593E1,8.49762E1,7.861466E0,3.8186712E0,6.45151E0,1.1173365E0,1.2944366E0,1.8462523E1,3.5796246E1],"tree_param":{"num_deleted":"0","num_feature":"30","num_nodes":"31","size_leaf_vector":"1"}},{"base_weights":[1.2134981E-2,2.463957E-1,-2.5647795E-1,3.6247894E-1,-2.9035863E-1,-6.1085415E-1,-2.031602E-2,6.8565214E-1,2.4871536E-1,1.8462388E-1,-5.8970493E-1,-7.388575E-2,-7.8786343E-1,1.3322814E-1,-3.5333964E-1,2.486053E-2,4.359582E-2,4.2108013E-3,2.770828E-2,-5.0118896E-3,3.58011E-2,-7.545966E-2,-2.550059E-2,1.902441E-2,-4.144087E-2,-5.1709663E-2,-2.7805109E-2,1.3656871E-2,-9.914651E-3,-3.8509108E-2,-2.6238947E-3],"categories":[],"categories_nodes":[],"categories_segments":[],"categories_sizes":[],"default_left":[0,0,0,0,0,0,0,0,0,0,0,0,0,0,0,0,0,0,0,0,0,0,0,0,0,0,0,0,0,0,0],"id":32,"left_children":[1,3,5,7,9,11,13,15,17,19,21,23,25,27,29,-1,-1,-1,-1,-1,-1,-1,-1,-1,-1,-1,-1,-1,-1,-1,-1],"loss_changes":[8.171322E1,4.3323036E1,5.0616287E1,2.081234E1,1.772393E1,2.2933304E1,1.8662931E1,4.7622604E0,2.1242525E1,7.437006E0,4.8164406E0,2.1264864E1,9.804886E0,1.1645351E1,1.4401922E1,0E0,0E0,0E0,0E0,0E0,0E0,0E0,0E0,0E0,0E0,0E0,0E0,0E0,0E0,0E0,0E0],"parents":[2147483647,0,0,1,1,2,2,3,3,4,4,5,5,6,6,7,7,8,8,9,9,10,10,11,11,12,12,13,13,14,14],"right_children":[2,4,6,8,10,12,14,16,18,20,22,24,26,28,30,-1,-1,-1,-1,-1,-1,-1,-1,-1,-1,-1,-1,-1,-1,-1,-1],"split_conditions":[2.3E1,1E0,1E0,1.1105E2,4.02E1,1E0,1E0,5.475E1,8.435E1,1E0,5.58E1,1E0,1.9564E3,1E0,1.004E2,2.486053E-2,4.359582E-2,4.2108013E-3,2.770828E-2,-5.0118896E-3,3.58011E-2,-7.545966E-2,-2.550059E-2,1.902441E-2,-4.144087E-2,-5.1709663E-2,-2.7805109E-2,1.3656871E-2,-9.914651E-3,-3.8509108E-2,-2.6238947E-3],"split_indices":[1,11,10,3,3,7,13,2,2,26,3,19,3,19,2,0,0,0,0,0,0,0,0,0,0,0,0,0,0,0,0],"split_type":[0,0,0,0,0,0,0,0,0,0,0,0,0,0,0,0,0,0,0,0,0,0,0,0,0,0,0,0,0,0,0],"sum_hessian":[1.2965674E3,6.926133E2,6.039541E2,5.6972437E2,1.2288894E2,2.4089262E2,3.630615E2,1.4702815E2,4.2269623E2,4.7655556E1,7.523338E1,6.0073494E1,1.8081912E2,2.4890231E2,1.1415917E2,7.491095E1,7.21172E1,2.7556644E2,1.4712976E2,3.1552742E1,1.6102816E1,4.5698266E0,7.066356E1,3.7811638E1,2.2261856E1,8.597617E1,9.484295E1,1.751579E2,7.374441E1,4.7201622E1,6.695755E1],"tree_param":{"num_deleted":"0","num_feature":"30","num_nodes":"31","size_leaf_vector":"1"}},{"base_weights":[-3.9348215E-2,-2.5019404E-1,2.4473163E-1,8.6310275E-2,-4.478204E-1,3.4230068E-1,-2.0848992E-1,-7.670739E-2,5.96868E-1,-7.0091516E-1,-2.0025843E-1,4.1782653E-1,-6.668906E-2,5.002342E-1,-4.0965816E-1,1.0428778E-2,-1.687619E-2,3.8513537E-2,1.3781962E-2,-3.847101E-2,-1.32677825E-2,5.1026745E-3,-2.5760988E-2,2.3397917E-2,-2.097271E-2,8.927592E-3,-1.9043287E-2,4.780029E-2,-4.074369E-2,-4.1708764E-2,1.7738063E-3],"categories":[],"categories_nodes":[],"categories_segments":[],"categories_sizes":[],"default_left":[0,0,0,0,0,0,0,0,0,0,0,0,0,0,0,0,0,0,0,0,0,0,0,0,0,0,0,0,0,0,0],"id":33,"left_children":[1,3,5,7,9,11,13,15,17,19,21,23,25,27,29,-1,-1,-1,-1,-1,-1,-1,-1,-1,-1,-1,-1,-1,-1,-1,-1],"loss_changes":[7.679097E1,4.896988E1,2.4226425E1,2.277387E1,2.8914062E1,1.3923641E1,1.4089354E1,1.553747E1,3.475336E0,6.625511E0,2.2506218E1,1.6141174E1,5.537382E0,1.3954224E1,1.4467397E1,0E0,0E0,0E0,0E0,0E0,0E0,0E0,0E0,0E0,0E0,0E0,0E0,0E0,0E0,0E0,0E0],"parents":[2147483647,0,0,1,1,2,2,3,3,4,4,5,5,6,6,7,7,8,8,9,9,10,10,11,11,12,12,13,13,14,14],"right_children":[2,4,6,8,10,12,14,16,18,20,22,24,26,28,30,-1,-1,-1,-1,-1,-1,-1,-1,-1,-1,-1,-1,-1,-1,-1,-1],"split_conditions":[1E0,1.3E1,1E0,7.21E1,1E0,1E0,5.62E1,3E0,1E0,1E0,1E0,1E0,1E0,4.1E1,9.185E1,1.0428778E-2,-1.687619E-2,3.8513537E-2,1.3781962E-2,-3.847101E-2,-1.32677825E-2,5.1026745E-3,-2.5760988E-2,2.3397917E-2,-2.097271E-2,8.927592E-3,-1.9043287E-2,4.780029E-2,-4.074369E-2,-4.1708764E-2,1.7738063E-3],"split_indices":[28,1,13,2,23,19,2,1,4,0,19,11,4,1,2,0,0,0,0,0,0,0,0,0,0,0,0,0,0,0,0],"split_type":[0,0,0,0,0,0,0,0,0,0,0,0,0,0,0,0,0,0,0,0,0,0,0,0,0,0,0,0,0,0,0],"sum_hessian":[1.280027E3,7.3478455E2,5.4524243E2,2.7207593E2,4.6270865E2,4.4885757E2,9.638484E1,2.0687263E2,6.520329E1,2.2789207E2,2.3481656E2,3.7887183E2,6.998574E1,2.0981056E1,7.5403786E1,9.889779E1,1.0797484E2,4.143717E1,2.3766123E1,1.9625801E2,3.1634075E1,1.20159164E2,1.1465739E2,3.5788474E2,2.0987083E1,3.9547405E1,3.043834E1,1.5783939E1,5.1971164E0,3.8148357E1,3.725543E1],"tree_param":{"num_deleted":"0","num_feature":"30","num_nodes":"31","size_leaf_vector":"1"}},{"base_weights":[3.6228043E-3,-1.972045E-1,2.673538E-1,-9.989571E-2,-6.590375E-1,-1.2576799E-1,3.883542E-1,-1.9390778E-1,3.869825E-1,-8.2787114E-1,-7.759146E-2,3.5389367E-1,-5.064703E-1,4.4565618E-1,-5.0072056E-1,-2.8521486E-3,-2.1655012E-2,2.4323074E-2,-7.518912E-2,-4.2374324E-2,1.7860955E-2,2.0487072E-2,-4.403926E-2,2.3119943E-2,-9.393718E-3,-4.3961808E-2,-4.610315E-3,2.5617829E-2,4.376586E-3,-3.9031934E-2,-9.5853873E-4],"categories":[],"categories_nodes":[],"categories_segments":[],"categories_sizes":[],"default_left":[0,0,0,0,0,0,0,0,0,0,0,0,0,0,0,0,0,0,0,0,0,0,0,0,0,0,0,0,0,0,0],"id":34,"left_children":[1,3,5,7,9,11,13,15,17,19,21,23,25,27,29,-1,-1,-1,-1,-1,-1,-1,-1,-1,-1,-1,-1,-1,-1,-1,-1],"loss_changes":[6.732839E1,3.2366528E1,2.618888E1,2.7413017E1,1.2247574E1,2.3934639E1,2.1642857E1,1.6385181E1,1.8975445E1,2.5596924E0,1.1839568E1,3.5053124E0,1.1182186E1,9.402794E0,3.4800038E0,0E0,0E0,0E0,0E0,0E0,0E0,0E0,0E0,0E0,0E0,0E0,0E0,0E0,0E0,0E0,0E0],"parents":[2147483647,0,0,1,1,2,2,3,3,4,4,5,5,6,6,7,7,8,8,9,9,10,10,11,11,12,12,13,13,14,14],"right_children":[2,4,6,8,10,12,14,16,18,20,22,24,26,28,30,-1,-1,-1,-1,-1,-1,-1,-1,-1,-1,-1,-1,-1,-1,-1,-1],"split_conditions":[1E0,1E0,1E0,1E0,6.84145E3,9E0,6.2E1,2.6E1,6.9103E3,1.1295E2,7.2E1,1E0,1E0,1E0,1E0,-2.8521486E-3,-2.1655012E-2,2.4323074E-2,-7.518912E-2,-4.2374324E-2,1.7860955E-2,2.0487072E-2,-4.403926E-2,2.3119943E-2,-9.393718E-3,-4.3961808E-2,-4.610315E-3,2.5617829E-2,4.376586E-3,-3.9031934E-2,-9.5853873E-4],"split_indices":[28,25,26,0,3,1,1,1,3,2,1,9,21,19,6,0,0,0,0,0,0,0,0,0,0,0,0,0,0,0,0],"split_type":[0,0,0,0,0,0,0,0,0,0,0,0,0,0,0,0,0,0,0,0,0,0,0,0,0,0,0,0,0,0,0],"sum_hessian":[1.2692058E3,7.206748E2,5.4853107E2,5.9625867E2,1.24416145E2,1.2908937E2,4.1944168E2,5.0026367E2,9.5994965E1,9.609063E1,2.8325516E1,5.7151897E1,7.193747E1,3.9451355E2,2.4928137E1,3.189821E2,1.812816E2,9.190241E1,4.0925527E0,9.48063E1,1.2843302E0,1.793402E1,1.0391497E1,4.7737534E1,9.414365E0,3.727449E1,3.4662983E1,3.322092E2,6.2304356E1,1.5371693E1,9.556443E0],"tree_param":{"num_deleted":"0","num_feature":"30","num_nodes":"31","size_leaf_vector":"1"}},{"base_weights":[3.202327E-2,-1.739437E-1,2.985693E-1,1.3797878E-1,-3.5801044E-1,6.2036604E-1,1.9394258E-1,1.966563E-2,7.570045E-1,-4.5249578E-1,8.2879886E-2,-1.2786093E-1,6.83596E-1,-1.2283317E-1,2.9619402E-1,1.9250371E-3,-9.988839E-2,2.9799554E-2,5.834363E-2,-2.9860213E-2,-9.255371E-3,2.5573237E-2,-2.3517927E-2,1.0597928E-2,-6.2903866E-2,3.786628E-2,1.5626904E-2,4.86913E-3,-3.9621245E-2,1.7891135E-2,-2.1592544E-2],"categories":[],"categories_nodes":[],"categories_segments":[],"categories_sizes":[],"default_left":[0,0,0,0,0,0,0,0,0,0,0,0,0,0,0,0,0,0,0,0,0,0,0,0,0,0,0,0,0,0,0],"id":35,"left_children":[1,3,5,7,9,11,13,15,17,19,21,23,25,27,29,-1,-1,-1,-1,-1,-1,-1,-1,-1,-1,-1,-1,-1,-1,-1,-1],"loss_changes":[7.1668594E1,4.2335484E1,1.903695E1,2.0055962E1,1.93441E1,6.6707993E0,1.3991705E1,8.858374E0,2.2047844E0,1.4663353E1,1.9834902E1,4.754693E0,3.2779236E0,1.5683992E1,1.4781691E1,0E0,0E0,0E0,0E0,0E0,0E0,0E0,0E0,0E0,0E0,0E0,0E0,0E0,0E0,0E0,0E0],"parents":[2147483647,0,0,1,1,2,2,3,3,4,4,5,5,6,6,7,7,8,8,9,9,10,10,11,11,12,12,13,13,14,14],"right_children":[2,4,6,8,10,12,14,16,18,20,22,24,26,28,30,-1,-1,-1,-1,-1,-1,-1,-1,-1,-1,-1,-1,-1,-1,-1,-1],"split_conditions":[1E0,1.3E1,2.47E2,7.935E1,1E0,2.075E1,1E0,7.83E1,1E0,8.9E1,4.8E1,1E0,1E0,6.075E1,6.3E1,1.9250371E-3,-9.988839E-2,2.9799554E-2,5.834363E-2,-2.9860213E-2,-9.255371E-3,2.5573237E-2,-2.3517927E-2,1.0597928E-2,-6.2903866E-2,3.786628E-2,1.5626904E-2,4.86913E-3,-3.9621245E-2,1.7891135E-2,-2.1592544E-2],"split_indices":[28,1,3,2,0,2,10,2,0,2,1,5,5,2,1,0,0,0,0,0,0,0,0,0,0,0,0,0,0,0,0],"split_type":[0,0,0,0,0,0,0,0,0,0,0,0,0,0,0,0,0,0,0,0,0,0,0,0,0,0,0,0,0,0,0],"sum_hessian":[1.3035006E3,7.3550464E2,5.679959E2,2.7304633E2,4.624583E2,1.3815329E2,4.2984262E2,2.300996E2,4.294671E1,3.8082004E2,8.1638275E1,1.068547E1,1.2746783E2,1.0484151E2,3.2500113E2,2.2894307E2,1.1565365E0,3.259581E1,1.0350901E1,2.4629411E2,1.3452594E2,4.6044136E1,3.5594135E1,8.840023E0,1.845447E0,1.0546987E2,2.1997955E1,7.953767E1,2.5303835E1,3.001058E2,2.489531E1],"tree_param":{"num_deleted":"0","num_feature":"30","num_nodes":"31","size_leaf_vector":"1"}},{"base_weights":[-1.456864E-4,3.7729728E-1,-1.3781384E-1,-2.267891E-1,5.094147E-1,-4.00112E-1,4.964856E-2,-5.138013E-1,3.4046495E-1,5.6519914E-1,-1.2946511E-2,-2.6141602E-1,-8.9951885E-1,1.485595E-1,-3.6283216E-1,-2.9419376E-2,2.8871967E-2,3.0571504E-2,-6.3180044E-2,2.2503976E-2,4.0399693E-2,1.6740588E-2,-2.4297364E-2,3.925097E-3,-1.8803695E-2,-4.821339E-2,-1.5414766E-2,-7.369881E-3,1.5618056E-2,-6.086847E-2,-1.2567331E-2],"categories":[],"categories_nodes":[],"categories_segments":[],"categories_sizes":[],"default_left":[0,0,0,0,0,0,0,0,0,0,0,0,0,0,0,0,0,0,0,0,0,0,0,0,0,0,0,0,0,0,0],"id":36,"left_children":[1,3,5,7,9,11,13,15,17,19,21,23,25,27,29,-1,-1,-1,-1,-1,-1,-1,-1,-1,-1,-1,-1,-1,-1,-1,-1],"loss_changes":[6.585034E1,2.7146698E1,4.567952E1,1.01832695E1,8.114548E0,2.6581108E1,2.2184742E1,3.69456E0,1.0010927E1,6.6629944E0,4.7392473E0,1.1893694E1,2.9083862E0,2.1290741E1,9.716864E0,0E0,0E0,0E0,0E0,0E0,0E0,0E0,0E0,0E0,0E0,0E0,0E0,0E0,0E0,0E0,0E0],"parents":[2147483647,0,0,1,1,2,2,3,3,4,4,5,5,6,6,7,7,8,8,9,9,10,10,11,11,12,12,13,13,14,14],"right_children":[2,4,6,8,10,12,14,16,18,20,22,24,26,28,30,-1,-1,-1,-1,-1,-1,-1,-1,-1,-1,-1,-1,-1,-1,-1,-1],"split_conditions":[6E0,2.09E1,1E0,1E0,1E0,1E0,6E1,1.025E2,6.105E1,7.58E1,1.5535E2,1E0,1E0,1E0,9.335E1,-2.9419376E-2,2.8871967E-2,3.0571504E-2,-6.3180044E-2,2.2503976E-2,4.0399693E-2,1.6740588E-2,-2.4297364E-2,3.925097E-3,-1.8803695E-2,-4.821339E-2,-1.5414766E-2,-7.369881E-3,1.5618056E-2,-6.086847E-2,-1.2567331E-2],"split_indices":[1,2,10,26,13,25,1,3,3,2,3,7,28,9,2,0,0,0,0,0,0,0,0,0,0,0,0,0,0,0,0],"split_type":[0,0,0,0,0,0,0,0,0,0,0,0,0,0,0,0,0,0,0,0,0,0,0,0,0,0,0,0,0,0,0],"sum_hessian":[1.2652811E3,3.3769272E2,9.275884E2,6.047294E1,2.772198E2,3.8615057E2,5.414378E2,4.021811E1,2.0254831E1,2.5039714E2,2.6822655E1,3.0341043E2,8.274013E1,4.3723157E2,1.0420623E2,3.80764E1,2.1417098E0,1.7857155E1,2.3976758E0,1.717952E2,7.8601944E1,1.5626177E1,1.1196479E1,7.6608894E1,2.2680154E2,7.4004425E1,8.7357E0,1.5581139E2,2.814202E2,1.0881321E1,9.3324905E1],"tree_param":{"num_deleted":"0","num_feature":"30","num_nodes":"31","size_leaf_vector":"1"}},{"base_weights":[7.0283986E-3,-1.7289759E-1,2.4718896E-1,1.02653556E-1,-3.4030458E-1,3.360293E-1,-1.23402074E-1,-4.595371E-3,6.713273E-1,-5.896108E-1,-9.794768E-2,-6.731839E-3,4.3165675E-1,1.4434364E-1,-4.3309733E-1,4.44778E-3,-2.5602141E-2,3.9013643E-2,1.5811067E-2,-4.3227658E-2,-1.7906643E-2,3.063585E-3,-2.7766844E-2,-1.8781818E-2,1.6211089E-2,2.5865937E-2,4.679057E-3,2.08137E-2,-1.3250682E-2,-1.3428623E-2,-6.979354E-2],"categories":[],"categories_nodes":[],"categories_segments":[],"categories_sizes":[],"default_left":[0,0,0,0,0,0,0,0,0,0,0,0,0,0,0,0,0,0,0,0,0,0,0,0,0,0,0,0,0,0,0],"id":37,"left_children":[1,3,5,7,9,11,13,15,17,19,21,23,25,27,29,-1,-1,-1,-1,-1,-1,-1,-1,-1,-1,-1,-1,-1,-1,-1,-1],"loss_changes":[5.4108246E1,3.3058235E1,1.7698524E1,1.6550997E1,2.6863716E1,1.4191238E1,8.722397E0,1.0929287E1,1.4190464E0,1.365583E1,1.657483E1,1.17702055E1,9.753506E0,6.4288893E0,7.3352356E0,0E0,0E0,0E0,0E0,0E0,0E0,0E0,0E0,0E0,0E0,0E0,0E0,0E0,0E0,0E0,0E0],"parents":[2147483647,0,0,1,1,2,2,3,3,4,4,5,5,6,6,7,7,8,8,9,9,10,10,11,11,12,12,13,13,14,14],"right_children":[2,4,6,8,10,12,14,16,18,20,22,24,26,28,30,-1,-1,-1,-1,-1,-1,-1,-1,-1,-1,-1,-1,-1,-1,-1,-1],"split_conditions":[1E0,1.3E1,1E0,7.935E1,1E0,1E0,1E0,3.714E2,1E0,5.14E1,1E0,1E0,3.24755E3,3.19025E3,1E0,4.44778E-3,-2.5602141E-2,3.9013643E-2,1.5811067E-2,-4.3227658E-2,-1.7906643E-2,3.063585E-3,-2.7766844E-2,-1.8781818E-2,1.6211089E-2,2.5865937E-2,4.679057E-3,2.08137E-2,-1.3250682E-2,-1.3428623E-2,-6.979354E-2],"split_indices":[28,1,19,2,23,26,4,3,15,2,25,4,3,3,0,0,0,0,0,0,0,0,0,0,0,0,0,0,0,0,0],"split_type":[0,0,0,0,0,0,0,0,0,0,0,0,0,0,0,0,0,0,0,0,0,0,0,0,0,0,0,0,0,0,0],"sum_hessian":[1.2501941E3,7.148874E2,5.353067E2,2.7032327E2,4.445641E2,4.3186957E2,1.03437126E2,2.2826549E2,4.205777E1,2.1843394E2,2.2613016E2,9.4408226E1,3.3746133E2,5.576213E1,4.7674995E1,1.9343018E2,3.483531E1,3.1267649E1,1.0790123E1,9.859314E1,1.19840805E2,1.6838171E2,5.7748444E1,4.4580547E1,4.982768E1,2.688178E2,6.864353E1,3.3494984E1,2.2267147E1,4.180931E1,5.865685E0],"tree_param":{"num_deleted":"0","num_feature":"30","num_nodes":"31","size_leaf_vector":"1"}},{"base_weights":[-2.492727E-2,5.1390097E-2,-6.3802785E-1,4.950015E-1,-1.5994547E-2,-7.820298E-1,-2.2535372E-1,2.801432E-1,7.403281E-1,-2.8403315E-1,1.06707975E-1,-5.5307623E-2,-6.525516E-1,-2.9551812E-2,-5.0846703E-2,1.8159026E-2,-4.9929585E-2,3.888317E-2,-7.402225E-3,-1.9818524E-2,-9.795995E-4,1.0165383E-2,-1.0897327E-2,-3.161811E-3,-4.126126E-2,-9.13741E-3,3.0006716E-2],"categories":[],"categories_nodes":[],"categories_segments":[],"categories_sizes":[],"default_left":[0,0,0,0,0,0,0,0,0,0,0,0,0,0,0,0,0,0,0,0,0,0,0,0,0,0,0],"id":38,"left_children":[1,3,5,7,9,11,13,15,17,19,21,-1,23,25,-1,-1,-1,-1,-1,-1,-1,-1,-1,-1,-1,-1,-1],"loss_changes":[5.791852E1,3.2922955E1,7.9664764E0,7.447941E0,3.1501024E1,3.5240784E0,5.681465E0,8.754666E0,2.3440018E0,8.926683E0,2.0652594E1,0E0,7.5525E0,3.0588748E0,0E0,0E0,0E0,0E0,0E0,0E0,0E0,0E0,0E0,0E0,0E0,0E0,0E0],"parents":[2147483647,0,0,1,1,2,2,3,3,4,4,5,5,6,6,7,7,8,8,9,9,10,10,12,12,13,13],"right_children":[2,4,6,8,10,12,14,16,18,20,22,-1,24,26,-1,-1,-1,-1,-1,-1,-1,-1,-1,-1,-1,-1,-1],"split_conditions":[1E0,2E0,1.0315E2,5.02E1,1E0,4.8E1,7.9622E3,4.95E1,1E0,1E0,1E0,-5.5307623E-2,6E1,1.1295E2,-5.0846703E-2,1.8159026E-2,-4.9929585E-2,3.888317E-2,-7.402225E-3,-1.9818524E-2,-9.795995E-4,1.0165383E-2,-1.0897327E-2,-3.161811E-3,-4.126126E-2,-9.13741E-3,3.0006716E-2],"split_indices":[25,1,2,2,26,1,3,2,27,21,19,0,1,2,0,0,0,0,0,0,0,0,0,0,0,0,0],"split_type":[0,0,0,0,0,0,0,0,0,0,0,0,0,0,0,0,0,0,0,0,0,0,0,0,0,0,0],"sum_hessian":[1.236133E3,1.10011E3,1.3602301E2,1.4423381E2,9.558762E2,1.00172844E2,3.5850174E1,7.803354E1,6.620027E1,2.9975623E2,6.5612E2,2.6440699E1,7.373215E1,2.9572563E1,6.277609E0,7.3947586E1,4.085957E0,6.36499E1,2.5503693E0,2.1003313E2,8.9723114E1,5.0595026E2,1.5016975E2,1.7017965E1,5.671418E1,2.4356619E1,5.2159443E0],"tree_param":{"num_deleted":"0","num_feature":"30","num_nodes":"27","size_leaf_vector":"1"}},{"base_weights":[1.6819328E-2,-2.6931638E-1,1.6038659E-1,-1.8220444E-1,-7.4924624E-1,2.3396894E-1,-4.1029274E-1,-5.444783E-1,-7.948503E-2,-6.3685715E-1,-5.9515715E-2,5.521877E-1,1.5031537E-1,-5.669991E-2,-2.8056392E-1,-1.0211262E-2,-3.6510922E-2,1.5806494E-2,-1.1744326E-2,-3.6092624E-2,5.2696414E-2,4.8651807E-2,2.407557E-2,2.4564746E-3,2.2770047E-2,4.2238787E-2,-1.8304478E-2],"categories":[],"categories_nodes":[],"categories_segments":[],"categories_sizes":[],"default_left":[0,0,0,0,0,0,0,0,0,0,0,0,0,0,0,0,0,0,0,0,0,0,0,0,0,0,0],"id":39,"left_children":[1,3,5,7,9,11,13,15,17,19,-1,21,23,-1,25,-1,-1,-1,-1,-1,-1,-1,-1,-1,-1,-1,-1],"loss_changes":[4.969454E1,1.676195E1,3.3918915E1,1.273635E1,2.3041267E0,1.892659E1,8.352779E0,4.6345596E0,1.659552E1,8.144526E0,0E0,3.9417343E0,1.747593E1,0E0,7.9748597E0,0E0,0E0,0E0,0E0,0E0,0E0,0E0,0E0,0E0,0E0,0E0,0E0],"parents":[2147483647,0,0,1,1,2,2,3,3,4,4,5,5,6,6,7,7,8,8,9,9,11,11,12,12,14,14],"right_children":[2,4,6,8,10,12,14,16,18,20,-1,22,24,-1,26,-1,-1,-1,-1,-1,-1,-1,-1,-1,-1,-1,-1],"split_conditions":[1E0,1E0,6.2E1,2.09E1,9.85E1,4E0,6.995E1,4.02E1,2.793E2,6.5219E3,-5.9515715E-2,1E0,9.58E1,-5.669991E-2,7.985E1,-1.0211262E-2,-3.6510922E-2,1.5806494E-2,-1.1744326E-2,-3.6092624E-2,5.2696414E-2,4.8651807E-2,2.407557E-2,2.4564746E-3,2.2770047E-2,4.2238787E-2,-1.8304478E-2],"split_indices":[26,25,1,2,2,1,2,3,3,3,0,7,2,0,2,0,0,0,0,0,0,0,0,0,0,0,0],"split_type":[0,0,0,0,0,0,0,0,0,0,0,0,0,0,0,0,0,0,0,0,0,0,0,0,0,0,0],"sum_hessian":[1.2076583E3,4.0319586E2,8.044625E2,3.424225E2,6.0773365E1,7.1310596E2,9.135655E1,7.469286E1,2.677296E2,5.0379898E1,1.0393465E1,1.4727394E2,5.6583203E2,1.2710187E1,7.864637E1,2.711713E1,4.757573E1,7.521529E1,1.9251434E2,4.851417E1,1.8657274E0,1.9340666E1,1.2793327E2,4.2577786E2,1.4005415E2,4.927906E0,7.371846E1],"tree_param":{"num_deleted":"0","num_feature":"30","num_nodes":"27","size_leaf_vector":"1"}},{"base_weights":[-6.860818E-3,-1.7660694E-1,2.1517758E-1,-1.0091291E-1,-5.84927E-1,2.9288912E-1,-1.06655456E-1,-1.7434432E-1,2.638379E-1,-9.3165773E-1,-1.839488E-2,3.5863692E-1,-7.19642E-2,-4.5428064E-1,1.7413306E-1,9.740862E-3,-1.1973E-2,1.740077E-2,-5.278651E-2,-2.2297425E-2,-4.9942445E-2,1.2720986E-2,-4.1691627E-2,2.022363E-2,-1.855455E-2,-3.0753374E-2,3.8048269E-3,-1.2493546E-2,-7.041011E-2,2.1604644E-2,-3.7556864E-2],"categories":[],"categories_nodes":[],"categories_segments":[],"categories_sizes":[],"default_left":[0,0,0,0,0,0,0,0,0,0,0,0,0,0,0,0,0,0,0,0,0,0,0,0,0,0,0,0,0,0,0],"id":40,"left_children":[1,3,5,7,9,11,13,15,17,19,21,23,25,27,29,-1,-1,-1,-1,-1,-1,-1,-1,-1,-1,-1,-1,-1,-1,-1,-1],"loss_changes":[4.6404243E1,2.1506453E1,1.3372898E1,1.5844225E1,2.137659E1,1.0339836E1,1.0278212E1,1.1863616E1,1.1391168E1,1.7588043E0,9.637749E0,1.2341E1,5.3928447E0,8.805896E0,1.4293253E1,0E0,0E0,0E0,0E0,0E0,0E0,0E0,0E0,0E0,0E0,0E0,0E0,0E0,0E0,0E0,0E0],"parents":[2147483647,0,0,1,1,2,2,3,3,4,4,5,5,6,6,7,7,8,8,9,9,10,10,11,11,12,12,13,13,14,14],"right_children":[2,4,6,8,10,12,14,16,18,20,22,24,26,28,30,-1,-1,-1,-1,-1,-1,-1,-1,-1,-1,-1,-1,-1,-1,-1,-1],"split_conditions":[1E0,1E0,1E0,1E0,9.335E1,1E0,1E0,2E0,6.84145E3,1.98E1,7.2E1,1E0,6.677E2,3.3638E3,6.3E1,9.740862E-3,-1.1973E-2,1.740077E-2,-5.278651E-2,-2.2297425E-2,-4.9942445E-2,1.2720986E-2,-4.1691627E-2,2.022363E-2,-1.855455E-2,-3.0753374E-2,3.8048269E-3,-1.2493546E-2,-7.041011E-2,2.1604644E-2,-3.7556864E-2],"split_indices":[28,25,19,0,2,13,9,1,3,2,1,11,3,3,1,0,0,0,0,0,0,0,0,0,0,0,0,0,0,0,0],"split_type":[0,0,0,0,0,0,0,0,0,0,0,0,0,0,0,0,0,0,0,0,0,0,0,0,0,0,0,0,0,0,0],"sum_hessian":[1.229195E3,6.9674506E2,5.3244995E2,5.8883453E2,1.0791049E2,4.289607E2,1.03489235E2,4.9059106E2,9.824347E1,6.654124E1,4.136926E1,3.634778E2,6.5482895E1,4.5965096E1,5.7524136E1,7.326073E1,4.1733035E2,9.304429E1,5.1991863E0,9.014499E0,5.7526733E1,3.1513899E1,9.855362E0,3.424157E2,2.1062109E1,1.3352024E1,5.2130867E1,3.8892925E1,7.0721736E0,4.539992E1,1.2124215E1],"tree_param":{"num_deleted":"0","num_feature":"30","num_nodes":"31","size_leaf_vector":"1"}},{"base_weights":[2.3948468E-2,8.803679E-2,-5.126439E-1,1.4248526E-1,-3.0725348E-1,-5.5012137E-2,-3.7900415E-1,2.5072375E-1,-1.9038759E-1,-1.9813458E-2,-4.9361098E-1,-2.210829E-1,-9.058164E-1,2.4093514E-2,6.817378E-3,-1.2193712E-3,-2.4517553E-2,-1.2778843E-2,2.1854805E-2,-1.4895341E-2,-4.6853635E-2,-1.9526197E-2,1.5491632E-2,-5.427111E-2,-4.9296515E-3],"categories":[],"categories_nodes":[],"categories_segments":[],"categories_sizes":[],"default_left":[0,0,0,0,0,0,0,0,0,0,0,0,0,0,0,0,0,0,0,0,0,0,0,0,0],"id":41,"left_children":[1,3,5,7,9,-1,11,13,15,17,19,21,23,-1,-1,-1,-1,-1,-1,-1,-1,-1,-1,-1,-1],"loss_changes":[4.2614532E1,2.3862139E1,9.965641E0,3.511734E1,7.1839666E0,0E0,8.888332E0,1.9364574E1,1.1909062E1,5.914065E0,6.788065E0,7.8009877E0,3.4990368E0,0E0,0E0,0E0,0E0,0E0,0E0,0E0,0E0,0E0,0E0,0E0,0E0],"parents":[2147483647,0,0,1,1,2,2,3,3,4,4,6,6,7,7,8,8,9,9,10,10,11,11,12,12],"right_children":[2,4,6,8,10,-1,12,14,16,18,20,22,24,-1,-1,-1,-1,-1,-1,-1,-1,-1,-1,-1,-1],"split_conditions":[1E0,1E0,4.6E1,1E0,1.99E1,-5.5012137E-2,7.2E1,7E0,4.2E1,1E0,1E0,1.0585E2,1E0,2.4093514E-2,6.817378E-3,-1.2193712E-3,-2.4517553E-2,-1.2778843E-2,2.1854805E-2,-1.4895341E-2,-4.6853635E-2,-1.9526197E-2,1.5491632E-2,-5.427111E-2,-4.9296515E-3],"split_indices":[25,11,1,13,2,0,1,1,1,26,6,2,28,0,0,0,0,0,0,0,0,0,0,0,0],"split_type":[0,0,0,0,0,0,0,0,0,0,0,0,0,0,0,0,0,0,0,0,0,0,0,0,0],"sum_hessian":[1.2368676E3,1.1056494E3,1.3121815E2,9.7235394E2,1.3329541E2,2.2973473E1,1.08244675E2,7.339471E2,2.3840686E2,5.286387E1,8.043155E1,8.437226E1,2.3872412E1,2.4189023E2,4.9205685E2,1.5417018E2,8.423668E1,3.516138E1,1.7702484E1,5.6964367E1,2.3467176E1,6.416009E1,2.0212177E1,1.9245651E1,4.62676E0],"tree_param":{"num_deleted":"0","num_feature":"30","num_nodes":"25","size_leaf_vector":"1"}},{"base_weights":[2.3188926E-3,8.043787E-2,-4.8607635E-1,2.1532917E-1,-2.671874E-1,4.5325506E-2,-6.794638E-1,3.3233798E-1,-1.9519886E-1,-2.0693979E-1,-8.716783E-1,2.479656E-1,-3.2323337E-1,-1.2390774E-1,-7.681532E-1,4.19919E-3,2.0821018E-2,3.8453338E-3,-1.7147621E-2,-1.464247E-2,1.0209916E-2,-7.1057207E-3,-4.9644433E-2,5.822614E-4,4.4678297E-2,4.927823E-3,-4.4608388E-2,-6.341281E-2,7.34021E-3,-4.1386504E-2,-1.1459311E-2],"categories":[],"categories_nodes":[],"categories_segments":[],"categories_sizes":[],"default_left":[0,0,0,0,0,0,0,0,0,0,0,0,0,0,0,0,0,0,0,0,0,0,0,0,0,0,0,0,0,0,0],"id":42,"left_children":[1,3,5,7,9,11,13,15,17,19,21,23,25,27,29,-1,-1,-1,-1,-1,-1,-1,-1,-1,-1,-1,-1,-1,-1,-1,-1],"loss_changes":[4.6293007E1,4.9106827E1,1.7225166E1,3.6290585E1,1.04855995E1,3.4843042E0,5.952198E0,1.2228004E1,6.776772E0,9.512872E0,2.1786385E0,4.5629845E0,4.072474E0,5.7897944E0,3.2025871E0,0E0,0E0,0E0,0E0,0E0,0E0,0E0,0E0,0E0,0E0,0E0,0E0,0E0,0E0,0E0,0E0],"parents":[2147483647,0,0,1,1,2,2,3,3,4,4,5,5,6,6,7,7,8,8,9,9,10,10,11,11,12,12,13,13,14,14],"right_children":[2,4,6,8,10,12,14,16,18,20,22,24,26,28,30,-1,-1,-1,-1,-1,-1,-1,-1,-1,-1,-1,-1,-1,-1,-1,-1],"split_conditions":[1E0,1E0,3.5E1,1E0,7.1E1,2.025E1,1.945E1,1E0,1.21545E3,1E0,1E0,2.01E1,1E0,5E0,2.515E1,4.19919E-3,2.0821018E-2,3.8453338E-3,-1.7147621E-2,-1.464247E-2,1.0209916E-2,-7.1057207E-3,-4.9644433E-2,5.822614E-4,4.4678297E-2,4.927823E-3,-4.4608388E-2,-6.341281E-2,7.34021E-3,-4.1386504E-2,-1.1459311E-2],"split_indices":[11,13,3,19,1,2,2,26,3,0,25,2,4,1,2,0,0,0,0,0,0,0,0,0,0,0,0,0,0,0,0],"split_type":[0,0,0,0,0,0,0,0,0,0,0,0,0,0,0,0,0,0,0,0,0,0,0,0,0,0,0,0,0,0,0],"sum_hessian":[1.211329E3,1.0450139E3,1.6631502E2,7.5314624E2,2.9186768E2,4.458027E1,1.2173475E2,5.86245E2,1.6690125E2,2.6663535E2,2.5232323E1,2.8975973E1,1.5604294E1,1.7088484E1,1.0464626E2,1.487831E2,4.374619E2,5.8903336E1,1.079979E2,2.2078815E2,4.5847202E1,3.9043777E0,2.1327946E1,2.1956785E1,7.0191884E0,9.435721E0,6.1685724E0,2.5642102E0,1.4524273E1,9.374771E1,1.089855E1],"tree_param":{"num_deleted":"0","num_feature":"30","num_nodes":"31","size_leaf_vector":"1"}},{"base_weights":[-2.1237958E-2,-1.9954336E-1,1.2966219E-1,3.83941E-2,-3.7496108E-1,4.472466E-1,2.385981E-2,2.8419158E-1,-2.4891311E-1,-4.4051853E-1,9.175809E-2,7.48935E-1,3.1147218E-1,-2.2081792E-1,1.300824E-1,2.0225873E-2,-3.000759E-2,-9.631353E-3,-6.69058E-2,-1.8510215E-2,-3.4395006E-2,-1.7277582E-2,3.192155E-2,3.9886475E-2,-2.9947093E-2,-1.4175976E-2,2.3673637E-2,9.424056E-3,-1.9025704E-2,1.3316502E-2,-8.0016265E-3],"categories":[],"categories_nodes":[],"categories_segments":[],"categories_sizes":[],"default_left":[0,0,0,0,0,0,0,0,0,0,0,0,0,0,0,0,0,0,0,0,0,0,0,0,0,0,0,0,0,0,0],"id":43,"left_children":[1,3,5,7,9,11,13,15,17,19,21,23,25,27,29,-1,-1,-1,-1,-1,-1,-1,-1,-1,-1,-1,-1,-1,-1,-1,-1],"loss_changes":[3.233856E1,2.300701E1,2.1865707E1,1.6644E1,9.745434E0,6.42873E0,1.27488785E1,1.3750996E1,6.408663E0,4.586128E0,9.757887E0,3.7508774E0,1.1110438E1,9.77983E0,1.3556837E1,0E0,0E0,0E0,0E0,0E0,0E0,0E0,0E0,0E0,0E0,0E0,0E0,0E0,0E0,0E0,0E0],"parents":[2147483647,0,0,1,1,2,2,3,3,4,4,5,5,6,6,7,7,8,8,9,9,10,10,11,11,12,12,13,13,14,14],"right_children":[2,4,6,8,10,12,14,16,18,20,22,24,26,28,30,-1,-1,-1,-1,-1,-1,-1,-1,-1,-1,-1,-1,-1,-1,-1,-1],"split_conditions":[1E0,3.162E2,9E0,1E0,1E0,1.185E2,1E0,5.55E1,2.385E1,1E0,1E0,1E0,7.465E1,1.8E1,5.5E1,2.0225873E-2,-3.000759E-2,-9.631353E-3,-6.69058E-2,-1.8510215E-2,-3.4395006E-2,-1.7277582E-2,3.192155E-2,3.9886475E-2,-2.9947093E-2,-1.4175976E-2,2.3673637E-2,9.424056E-3,-1.9025704E-2,1.3316502E-2,-8.0016265E-3],"split_indices":[10,3,1,11,0,3,9,2,2,25,21,19,2,1,1,0,0,0,0,0,0,0,0,0,0,0,0,0,0,0,0],"split_type":[0,0,0,0,0,0,0,0,0,0,0,0,0,0,0,0,0,0,0,0,0,0,0,0,0,0,0,0,0,0,0],"sum_hessian":[1.1999333E3,5.4987366E2,6.5005963E2,2.3368428E2,3.161894E2,1.616404E2,4.8841922E2,1.2594579E2,1.0773849E2,2.772954E2,3.889401E1,4.8766365E1,1.1287403E2,1.4752498E2,3.4089426E2,1.1133928E2,1.4606509E1,1.03563545E2,4.174935E0,2.1786678E2,5.9428627E1,2.1812805E1,1.7081203E1,4.7456547E1,1.3098164E0,2.399514E1,8.887889E1,4.1354282E1,1.0617069E2,2.3201451E2,1.0887975E2],"tree_param":{"num_deleted":"0","num_feature":"30","num_nodes":"31","size_leaf_vector":"1"}},{"base_weights":[2.0316016E-2,1.0510146E-1,-5.3254765E-1,1.6351663E-2,4.528332E-1,-7.8188676E-1,-3.1507105E-1,2.2808322E-1,-1.09401904E-1,3.2137516E-1,7.343599E-1,-5.18948E-1,-1.1701362E0,-8.792452E-1,9.013419E-2,-7.425004E-3,1.8586304E-2,-1.6674401E-2,7.938372E-3,3.814645E-2,8.71856E-3,9.003186E-3,4.046342E-2,-3.3324E-2,3.2562282E-2,-6.276763E-2,-1.9903809E-2,-5.037817E-2,-1.5251892E-2,6.7559436E-2,5.225372E-4],"categories":[],"categories_nodes":[],"categories_segments":[],"categories_sizes":[],"default_left":[0,0,0,0,0,0,0,0,0,0,0,0,0,0,0,0,0,0,0,0,0,0,0,0,0,0,0,0,0,0,0],"id":44,"left_children":[1,3,5,7,9,11,13,15,17,19,21,23,25,27,29,-1,-1,-1,-1,-1,-1,-1,-1,-1,-1,-1,-1,-1,-1,-1,-1],"loss_changes":[5.6002098E1,3.1954243E1,8.368034E0,2.2021145E1,7.5559807E0,6.8791847E0,1.9860031E1,1.6724197E1,3.123915E1,9.298611E0,2.6046753E0,8.292716E0,1.396038E0,2.364481E0,5.137324E0,0E0,0E0,0E0,0E0,0E0,0E0,0E0,0E0,0E0,0E0,0E0,0E0,0E0,0E0,0E0,0E0],"parents":[2147483647,0,0,1,1,2,2,3,3,4,4,5,5,6,6,7,7,8,8,9,9,10,10,11,11,12,12,13,13,14,14],"right_children":[2,4,6,8,10,12,14,16,18,20,22,24,26,28,30,-1,-1,-1,-1,-1,-1,-1,-1,-1,-1,-1,-1,-1,-1,-1,-1],"split_conditions":[5.9E1,1E0,1E0,8E0,9.42E1,6.68895E3,9.38E1,3.025E1,1E0,2.325E2,1E0,6.42565E3,1.14E2,1E0,5.6617E3,-7.425004E-3,1.8586304E-2,-1.6674401E-2,7.938372E-3,3.814645E-2,8.71856E-3,9.003186E-3,4.046342E-2,-3.3324E-2,3.2562282E-2,-6.276763E-2,-1.9903809E-2,-5.037817E-2,-1.5251892E-2,6.7559436E-2,5.225372E-4],"split_indices":[1,0,4,1,2,3,2,2,21,3,26,3,2,28,3,0,0,0,0,0,0,0,0,0,0,0,0,0,0,0,0],"split_type":[0,0,0,0,0,0,0,0,0,0,0,0,0,0,0,0,0,0,0,0,0,0,0,0,0,0,0,0,0,0,0],"sum_hessian":[1.1925227E3,1.0346604E3,1.5786238E2,8.25117E2,2.0954337E2,7.233468E1,8.5527695E1,3.0715152E2,5.1796545E2,1.4430304E2,6.5240326E1,4.452031E1,2.7814375E1,3.5261974E1,5.0265724E1,8.480016E1,2.2235136E2,2.8204288E2,2.3592262E2,3.4996044E1,1.09307E2,8.172264E0,5.706806E1,3.9918095E1,4.6022143E0,2.4485767E1,3.328606E0,2.8204428E1,7.0575476E0,2.039057E0,4.8226665E1],"tree_param":{"num_deleted":"0","num_feature":"30","num_nodes":"31","size_leaf_vector":"1"}},{"base_weights":[1.7182218E-2,3.9145276E-1,-5.6253303E-2,6.267599E-2,5.274936E-1,-3.235115E-1,6.854449E-2,1.6824028E-1,-1.1729828E0,4.192115E-1,7.9031354E-1,-2.3719177E-1,-7.616691E-1,1.6960332E-1,-2.1900459E-1,1.1370612E-2,-4.019702E-2,-1.979022E-2,-7.032596E-2,2.5154067E-2,-2.93805E-2,4.5669872E-2,1.0292909E-2,-1.4233549E-2,2.1692466E-2,3.7673432E-3,-4.006531E-2,-9.963827E-4,1.65788E-2,2.0646413E-3,-2.2374177E-2],"categories":[],"categories_nodes":[],"categories_segments":[],"categories_sizes":[],"default_left":[0,0,0,0,0,0,0,0,0,0,0,0,0,0,0,0,0,0,0,0,0,0,0,0,0,0,0,0,0,0,0],"id":45,"left_children":[1,3,5,7,9,11,13,15,17,19,21,23,25,27,29,-1,-1,-1,-1,-1,-1,-1,-1,-1,-1,-1,-1,-1,-1,-1,-1],"loss_changes":[3.3043858E1,8.786968E0,3.355097E1,7.8737574E0,3.634327E0,1.1928566E1,1.9974695E1,3.3520498E0,3.067479E-1,8.808823E0,2.6556263E0,8.691591E0,1.7935905E0,1.5608946E1,1.0655626E1,0E0,0E0,0E0,0E0,0E0,0E0,0E0,0E0,0E0,0E0,0E0,0E0,0E0,0E0,0E0,0E0],"parents":[2147483647,0,0,1,1,2,2,3,3,4,4,5,5,6,6,7,7,8,8,9,9,10,10,11,11,12,12,13,13,14,14],"right_children":[2,4,6,8,10,12,14,16,18,20,22,24,26,28,30,-1,-1,-1,-1,-1,-1,-1,-1,-1,-1,-1,-1,-1,-1,-1,-1],"split_conditions":[3E0,2.505E1,1E0,4.02E1,7.555E1,1E0,1E0,1E0,4.44E1,1.185E2,1E0,1.0315E2,1.94E1,1E0,4.1E1,1.1370612E-2,-4.019702E-2,-1.979022E-2,-7.032596E-2,2.5154067E-2,-2.93805E-2,4.5669872E-2,1.0292909E-2,-1.4233549E-2,2.1692466E-2,3.7673432E-3,-4.006531E-2,-9.963827E-4,1.65788E-2,2.0646413E-3,-2.2374177E-2],"split_indices":[1,2,26,3,2,25,13,27,3,3,15,2,2,23,1,0,0,0,0,0,0,0,0,0,0,0,0,0,0,0,0],"split_type":[0,0,0,0,0,0,0,0,0,0,0,0,0,0,0,0,0,0,0,0,0,0,0,0,0,0,0,0,0,0,0],"sum_hessian":[1.2004602E3,1.9619661E2,1.0042637E3,5.784951E1,1.3834709E2,3.191666E2,6.8509705E2,5.4092175E1,3.7573347E0,9.981731E1,3.852979E1,2.6792505E2,5.1241547E1,5.072387E2,1.7785835E2,5.171086E1,2.3813114E0,1.4908414E0,2.2664933E0,9.260361E1,7.2136965E0,3.1362215E1,7.1675735E0,2.5075851E2,1.7166533E1,2.2761083E0,4.896544E1,2.341394E2,2.730993E2,8.352302E1,9.4335335E1],"tree_param":{"num_deleted":"0","num_feature":"30","num_nodes":"31","size_leaf_vector":"1"}},{"base_weights":[1.3649601E-2,-1.6054782E-1,1.5797321E-1,-1.98458E-3,-4.29831E-1,2.664914E-1,-2.0439358E-1,-3.9271202E-2,1.0121329E0,-1.4361948E-2,-5.7444775E-1,7.4459934E-1,2.1684821E-1,-7.5463474E-1,3.410117E-3,-1.1733991E-4,-3.8090628E-2,8.243745E-2,-2.6131107E-2,1.28864525E-2,-2.5769198E-2,-3.9013788E-2,-1.466355E-2,3.8806777E-2,-1.4079404E-2,-2.305543E-3,1.4049142E-2,-1.9826442E-2,-7.2065346E-2,3.8696922E-2,-1.1703082E-2],"categories":[],"categories_nodes":[],"categories_segments":[],"categories_sizes":[],"default_left":[0,0,0,0,0,0,0,0,0,0,0,0,0,0,0,0,0,0,0,0,0,0,0,0,0,0,0,0,0,0,0],"id":46,"left_children":[1,3,5,7,9,11,13,15,17,19,21,23,25,27,29,-1,-1,-1,-1,-1,-1,-1,-1,-1,-1,-1,-1,-1,-1,-1,-1],"loss_changes":[3.0147974E1,2.3200916E1,2.5841541E1,1.3009924E1,1.2091362E1,1.182645E1,1.7347336E1,8.850615E0,1.2783316E1,7.361062E0,8.415016E0,1.7427921E0,7.753519E0,9.655008E0,2.051079E1,0E0,0E0,0E0,0E0,0E0,0E0,0E0,0E0,0E0,0E0,0E0,0E0,0E0,0E0,0E0,0E0],"parents":[2147483647,0,0,1,1,2,2,3,3,4,4,5,5,6,6,7,7,8,8,9,9,10,10,11,11,12,12,13,13,14,14],"right_children":[2,4,6,8,10,12,14,16,18,20,22,24,26,28,30,-1,-1,-1,-1,-1,-1,-1,-1,-1,-1,-1,-1,-1,-1,-1,-1],"split_conditions":[1E0,2.3E1,1E0,2.2E1,1E0,1.185E2,9.13E1,1.9E1,1E0,1E0,1E0,1E0,1E0,8.66E1,3E1,-1.1733991E-4,-3.8090628E-2,8.243745E-2,-2.6131107E-2,1.28864525E-2,-2.5769198E-2,-3.9013788E-2,-1.466355E-2,3.8806777E-2,-1.4079404E-2,-2.305543E-3,1.4049142E-2,-1.9826442E-2,-7.2065346E-2,3.8696922E-2,-1.1703082E-2],"split_indices":[10,1,13,1,7,3,2,1,29,19,13,19,26,2,1,0,0,0,0,0,0,0,0,0,0,0,0,0,0,0,0],"split_type":[0,0,0,0,0,0,0,0,0,0,0,0,0,0,0,0,0,0,0,0,0,0,0,0,0,0,0,0,0,0,0],"sum_hessian":[1.1971564E3,5.4238715E2,6.547692E2,3.4200824E2,2.0037889E2,5.0407742E2,1.5069179E2,3.3080658E2,1.1201674E1,5.2022614E1,1.4835628E2,4.6099514E1,4.579779E2,4.058794E1,1.1010385E2,3.1567758E2,1.5128987E1,7.8649993E0,3.336675E0,3.402836E1,1.7994253E1,8.463006E1,6.3726227E1,4.4961452E1,1.1380607E0,8.985275E1,3.6812518E2,2.7712881E1,1.287506E1,2.5406832E1,8.4697014E1],"tree_param":{"num_deleted":"0","num_feature":"30","num_nodes":"31","size_leaf_vector":"1"}},{"base_weights":[-6.564033E-3,5.3116594E-2,-3.8529536E-1,1.5870287E-1,-2.1894035E-1,1.2147044E-1,-6.039549E-1,2.4402732E-1,-1.2995031E-1,-1.5657696E-1,-9.278173E-1,-6.623836E-2,4.4827017E-1,-2.7901372E-1,-7.962284E-1,2.9459504E-2,9.207631E-3,-1.1289941E-2,1.2211526E-2,-1.3218499E-2,1.083233E-2,-8.851419E-3,-5.0929762E-2,-7.677707E-2,3.1506475E-3,3.5690397E-2,-4.0922802E-2,3.7102352E-3,-3.0305147E-2,-5.103256E-2,-1.9329082E-2],"categories":[],"categories_nodes":[],"categories_segments":[],"categories_sizes":[],"default_left":[0,0,0,0,0,0,0,0,0,0,0,0,0,0,0,0,0,0,0,0,0,0,0,0,0,0,0,0,0,0,0],"id":47,"left_children":[1,3,5,7,9,11,13,15,17,19,21,23,25,27,29,-1,-1,-1,-1,-1,-1,-1,-1,-1,-1,-1,-1,-1,-1,-1,-1],"loss_changes":[2.7209272E1,2.990981E1,1.8231592E1,1.8499098E1,1.2728179E1,3.1107445E0,6.9404564E0,1.1859299E1,6.2140546E0,1.0873678E1,1.4106865E0,6.3207607E0,6.791114E0,5.1466904E0,6.1773567E0,0E0,0E0,0E0,0E0,0E0,0E0,0E0,0E0,0E0,0E0,0E0,0E0,0E0,0E0,0E0,0E0],"parents":[2147483647,0,0,1,1,2,2,3,3,4,4,5,5,6,6,7,7,8,8,9,9,10,10,11,11,12,12,13,13,14,14],"right_children":[2,4,6,8,10,12,14,16,18,20,22,24,26,28,30,-1,-1,-1,-1,-1,-1,-1,-1,-1,-1,-1,-1,-1,-1,-1,-1],"split_conditions":[1E0,1E0,4.02E1,1E0,7.1E1,1E0,1.99E1,2E0,1.0405E2,1.0115E2,1E0,1.93E1,2.44E1,1E0,2.09E1,2.9459504E-2,9.207631E-3,-1.1289941E-2,1.2211526E-2,-1.3218499E-2,1.083233E-2,-8.851419E-3,-5.0929762E-2,-7.677707E-2,3.1506475E-3,3.5690397E-2,-4.0922802E-2,3.7102352E-3,-3.0305147E-2,-5.103256E-2,-1.9329082E-2],"split_indices":[11,13,3,19,1,26,2,1,2,2,5,2,3,4,2,0,0,0,0,0,0,0,0,0,0,0,0,0,0,0,0],"split_type":[0,0,0,0,0,0,0,0,0,0,0,0,0,0,0,0,0,0,0,0,0,0,0,0,0,0,0,0,0,0,0],"sum_hessian":[1.201889E3,1.0390197E3,1.6286937E2,7.4881757E2,2.9020212E2,4.9226467E1,1.136429E2,5.7809125E2,1.707263E2,2.6785822E2,2.2343924E1,3.1773542E1,1.7452925E1,4.3157715E1,7.0485176E1,8.4149574E1,4.9394168E2,1.3622743E2,3.4498863E1,2.0805905E2,5.979916E1,2.7284126E0,1.961551E1,1.6893274E0,3.0084215E1,1.4789225E1,2.6637008E0,2.112178E1,2.2035936E1,4.4574E1,2.5911179E1],"tree_param":{"num_deleted":"0","num_feature":"30","num_nodes":"31","size_leaf_vector":"1"}},{"base_weights":[1.9495544E-3,1.4337407E-1,-1.6113847E-1,-3.039324E-1,2.2708386E-1,-3.147933E-1,4.872477E-2,-3.6773387E-1,9.785339E-1,1.5254271E-1,5.5306095E-1,-1.5628864E-1,-6.042733E-1,1.2474779E-1,-6.843664E-1,-1.0787965E-2,-3.887559E-2,-5.681259E-4,6.244431E-2,1.5993077E-2,-1.647432E-3,2.989147E-2,-2.9674804E-2,-7.0392095E-2,-4.8122085E-3,7.973156E-3,-3.4281105E-2,1.3358346E-2,-7.886265E-3,-1.669039E-2,-5.8770657E-2],"categories":[],"categories_nodes":[],"categories_segments":[],"categories_sizes":[],"default_left":[0,0,0,0,0,0,0,0,0,0,0,0,0,0,0,0,0,0,0,0,0,0,0,0,0,0,0,0,0,0,0],"id":48,"left_children":[1,3,5,7,9,11,13,15,17,19,21,23,25,27,29,-1,-1,-1,-1,-1,-1,-1,-1,-1,-1,-1,-1,-1,-1,-1,-1],"loss_changes":[2.759848E1,2.4064625E1,1.7935617E1,8.66083E0,1.3046434E1,1.4632572E1,1.3225018E1,5.895997E0,1.3739762E0,1.3703662E1,5.497633E0,1.55517645E1,7.1431465E0,8.6697445E0,3.447463E0,0E0,0E0,0E0,0E0,0E0,0E0,0E0,0E0,0E0,0E0,0E0,0E0,0E0,0E0,0E0,0E0],"parents":[2147483647,0,0,1,1,2,2,3,3,4,4,5,5,6,6,7,7,8,8,9,9,10,10,11,11,12,12,13,13,14,14],"right_children":[2,4,6,8,10,12,14,16,18,20,22,24,26,28,30,-1,-1,-1,-1,-1,-1,-1,-1,-1,-1,-1,-1,-1,-1,-1,-1],"split_conditions":[2.3E1,2.09E1,9.38E1,1E0,8.935E1,5E1,7.1E1,2.025E1,1.955E1,3.3355E2,1.065E2,2.4E1,1.33635E3,1E0,1E0,-1.0787965E-2,-3.887559E-2,-5.681259E-4,6.244431E-2,1.5993077E-2,-1.647432E-3,2.989147E-2,-2.9674804E-2,-7.0392095E-2,-4.8122085E-3,7.973156E-3,-3.4281105E-2,1.3358346E-2,-7.886265E-3,-1.669039E-2,-5.8770657E-2],